booster[0]:
0:[f25<0.5] yes=1,no=2,missing=1
	1:[f23<0.5] yes=3,no=4,missing=3
		3:leaf=0.545060277
		4:[f3<0.5] yes=7,no=8,missing=7
			7:leaf=0.208695665
			8:leaf=-0
	2:[f3<0.5] yes=5,no=6,missing=5
		5:[f33<0.5] yes=9,no=10,missing=9
			9:leaf=-0.205000013
			10:leaf=-0.371900856
		6:[f16<0.5] yes=11,no=12,missing=11
			11:leaf=-0.291743129
			12:leaf=-0.448648661
booster[1]:
0:[f25<0.5] yes=1,no=2,missing=1
	1:[f23<0.5] yes=3,no=4,missing=3
		3:[f24<0.5] yes=7,no=8,missing=7
			7:leaf=0.449115247
			8:leaf=0.386079788
		4:[f3<0.5] yes=9,no=10,missing=9
			9:leaf=0.148268312
			10:leaf=-0
	2:[f2<0.5] yes=5,no=6,missing=5
		5:[f32<0.5] yes=11,no=12,missing=11
			11:leaf=-0.355379611
			12:leaf=-0.18667905
		6:[f11<0.5] yes=13,no=14,missing=13
			13:leaf=-0.12236239
			14:leaf=0.0357165895
booster[2]:
0:[f25<0.5] yes=1,no=2,missing=1
	1:[f23<0.5] yes=3,no=4,missing=3
		3:[f24<0.5] yes=7,no=8,missing=7
			7:leaf=0.38237226
			8:leaf=0.318053901
		4:[f3<0.5] yes=9,no=10,missing=9
			9:leaf=0.106650829
			10:leaf=-0
	2:[f3<0.5] yes=5,no=6,missing=5
		5:[f0<0.5] yes=11,no=12,missing=11
			11:leaf=-0.0885665193
			12:leaf=-0.173097014
		6:[f20<0.5] yes=13,no=14,missing=13
			13:leaf=-0.247264519
			14:leaf=-0.0866256729
booster[3]:
0:[f25<0.5] yes=1,no=2,missing=1
	1:[f23<0.5] yes=3,no=4,missing=3
		3:[f24<0.5] yes=7,no=8,missing=7
			7:leaf=0.341125607
			8:leaf=0.2691302
		4:[f1<0.5] yes=9,no=10,missing=9
			9:leaf=0.0307700634
			10:leaf=0.117914297
	2:[f32<0.5] yes=5,no=6,missing=5
		5:[f2<0.5] yes=11,no=12,missing=11
			11:leaf=-0.249270126
			12:leaf=-0.0242557041
		6:[f11<0.5] yes=13,no=14,missing=13
			13:leaf=-0.0992215872
			14:leaf=-0.0243467037
booster[4]:
0:[f25<0.5] yes=1,no=2,missing=1
	1:[f23<0.5] yes=3,no=4,missing=3
		3:[f24<0.5] yes=7,no=8,missing=7
			7:leaf=0.31109935
			8:leaf=0.228793621
		4:[f3<0.5] yes=9,no=10,missing=9
			9:leaf=0.0585180968
			10:leaf=-0.00907857902
	2:[f3<0.5] yes=5,no=6,missing=5
		5:[f33<0.5] yes=11,no=12,missing=11
			11:leaf=-0.0434110686
			12:leaf=-0.148670539
		6:[f17<0.5] yes=13,no=14,missing=13
			13:leaf=-0.192201421
			14:leaf=-0.0371441543
booster[5]:
0:[f25<0.5] yes=1,no=2,missing=1
	1:[f23<0.5] yes=3,no=4,missing=3
		3:[f24<0.5] yes=7,no=8,missing=7
			7:leaf=0.286199272
			8:leaf=0.192977816
		4:[f1<0.5] yes=9,no=10,missing=9
			9:leaf=0.0120509779
			10:leaf=0.0701532513
	2:[f2<0.5] yes=5,no=6,missing=5
		5:[f32<0.5] yes=11,no=12,missing=11
			11:leaf=-0.17710714
			12:leaf=-0.0547924899
		6:[f17<0.5] yes=13,no=14,missing=13
			13:leaf=-0.0516206957
			14:leaf=0.057594642
booster[6]:
0:[f26<0.5] yes=1,no=2,missing=1
	1:[f24<0.5] yes=3,no=4,missing=3
		3:[f23<0.5] yes=5,no=6,missing=5
			5:leaf=-0.0381423198
			6:leaf=0.0204615723
		4:[f3<0.5] yes=7,no=8,missing=7
			7:leaf=0.207398623
			8:leaf=0.0199007168
	2:leaf=0.263290912
booster[7]:
0:[f26<0.5] yes=1,no=2,missing=1
	1:[f24<0.5] yes=3,no=4,missing=3
		3:[f11<0.5] yes=7,no=8,missing=7
			7:leaf=-0.021583857
			8:leaf=0.0340112783
		4:[f3<0.5] yes=9,no=10,missing=9
			9:leaf=0.176453397
			10:leaf=0.0144671509
	2:[f17<0.5] yes=5,no=6,missing=5
		5:leaf=0.276058376
		6:[f8<0.5] yes=11,no=12,missing=11
			11:leaf=0.230571777
			12:leaf=0.0596277267
booster[8]:
0:[f26<0.5] yes=1,no=2,missing=1
	1:[f24<0.5] yes=3,no=4,missing=3
		3:[f3<0.5] yes=7,no=8,missing=7
			7:leaf=0.00549012003
			8:leaf=-0.046121534
		4:[f7<0.5] yes=9,no=10,missing=9
			9:leaf=0.0478168875
			10:leaf=0.177237019
	2:[f17<0.5] yes=5,no=6,missing=5
		5:leaf=0.258953035
		6:[f8<0.5] yes=11,no=12,missing=11
			11:leaf=0.207612485
			12:leaf=0.0471605733
booster[9]:
0:[f26<0.5] yes=1,no=2,missing=1
	1:[f25<0.5] yes=3,no=4,missing=3
		3:[f23<0.5] yes=7,no=8,missing=7
			7:leaf=0.0830626711
			8:leaf=0.0196874253
		4:[f6<0.5] yes=9,no=10,missing=9
			9:leaf=-0.0141349761
			10:leaf=-0.0857492164
	2:[f1<0.5] yes=5,no=6,missing=5
		5:[f21<0.5] yes=11,no=12,missing=11
			11:leaf=0.259710699
			12:leaf=0.141459987
		6:[f12<0.5] yes=13,no=14,missing=13
			13:leaf=0.177406117
			14:leaf=-0.0248188004
booster[10]:
0:[f26<0.5] yes=1,no=2,missing=1
	1:[f3<0.5] yes=3,no=4,missing=3
		3:[f24<0.5] yes=7,no=8,missing=7
			7:leaf=0.00557874143
			8:leaf=0.112155668
		4:[f20<0.5] yes=9,no=10,missing=9
			9:leaf=-0.0639411733
			10:leaf=0.0395018309
	2:[f17<0.5] yes=5,no=6,missing=5
		5:[f7<0.5] yes=11,no=12,missing=11
			11:leaf=0.264876664
			12:leaf=0.134454787
		6:[f8<0.5] yes=13,no=14,missing=13
			13:leaf=0.162133858
			14:leaf=-0.0018531594
booster[11]:
0:[f26<0.5] yes=1,no=2,missing=1
	1:[f11<0.5] yes=3,no=4,missing=3
		3:[f3<0.5] yes=7,no=8,missing=7
			7:leaf=0.0006262635
			8:leaf=-0.0472218357
		4:[f19<0.5] yes=9,no=10,missing=9
			9:leaf=0.0212756917
			10:leaf=0.110481374
	2:[f3<0.5] yes=5,no=6,missing=5
		5:[f17<0.5] yes=11,no=12,missing=11
			11:leaf=0.184169561
			12:leaf=0.0368908122
		6:leaf=0.248206586
booster[12]:
0:[f25<0.5] yes=1,no=2,missing=1
	1:[f26<0.5] yes=3,no=4,missing=3
		3:[f16<0.5] yes=7,no=8,missing=7
			7:leaf=0.00387116685
			8:leaf=0.0612861998
		4:[f7<0.5] yes=9,no=10,missing=9
			9:leaf=0.182168812
			10:leaf=0.0597357638
	2:[f17<0.5] yes=5,no=6,missing=5
		5:[f3<0.5] yes=11,no=12,missing=11
			11:leaf=-0.0190187879
			12:leaf=-0.100533895
		6:[f6<0.5] yes=13,no=14,missing=13
			13:leaf=0.0346830487
			14:leaf=-0.134631217
booster[13]:
0:[f26<0.5] yes=1,no=2,missing=1
	1:[f32<0.5] yes=3,no=4,missing=3
		3:[f22<0.5] yes=7,no=8,missing=7
			7:leaf=0.015531797
			8:leaf=-0.153475553
		4:[f7<0.5] yes=9,no=10,missing=9
			9:leaf=-0.0103528854
			10:leaf=0.0272900444
	2:[f3<0.5] yes=5,no=6,missing=5
		5:[f18<0.5] yes=11,no=12,missing=11
			11:leaf=0.0201213155
			12:leaf=0.203765467
		6:leaf=0.226308376
booster[14]:
0:[f11<0.5] yes=1,no=2,missing=1
	1:[f26<0.5] yes=3,no=4,missing=3
		3:[f17<0.5] yes=7,no=8,missing=7
			7:leaf=-0.0214129277
			8:leaf=0.0113963541
		4:[f20<0.5] yes=9,no=10,missing=9
			9:leaf=0.141086683
			10:leaf=-0.0761473998
	2:[f12<0.5] yes=5,no=6,missing=5
		5:[f17<0.5] yes=11,no=12,missing=11
			11:leaf=0.0861615986
			12:leaf=-0.00782022439
		6:[f2<0.5] yes=13,no=14,missing=13
			13:leaf=-0.0686718076
			14:leaf=0.162334874
booster[15]:
0:[f25<0.5] yes=1,no=2,missing=1
	1:[f10<0.5] yes=3,no=4,missing=3
		3:[f31<0.5] yes=7,no=8,missing=7
			7:leaf=0.0381837338
			8:leaf=-0.165031552
		4:[f19<0.5] yes=9,no=10,missing=9
			9:leaf=0.0202826187
			10:leaf=-0.158879459
	2:[f0<0.5] yes=5,no=6,missing=5
		5:[f8<0.5] yes=11,no=12,missing=11
			11:leaf=0.018463295
			12:leaf=-0.0564443059
		6:[f4<0.5] yes=13,no=14,missing=13
			13:leaf=0.0110790823
			14:leaf=-0.123231627
booster[16]:
0:[f2<0.5] yes=1,no=2,missing=1
	1:[f13<0.5] yes=3,no=4,missing=3
		3:[f12<0.5] yes=7,no=8,missing=7
			7:leaf=0.0184097458
			8:leaf=-0.0271616857
		4:[f1<0.5] yes=9,no=10,missing=9
			9:leaf=-0.0912208259
			10:leaf=0.011236934
	2:[f15<0.5] yes=5,no=6,missing=5
		5:[f24<0.5] yes=11,no=12,missing=11
			11:leaf=0.0303740446
			12:leaf=0.211336374
		6:[f21<0.5] yes=13,no=14,missing=13
			13:leaf=-0.108889759
			14:leaf=0.105501667
booster[17]:
0:[f26<0.5] yes=1,no=2,missing=1
	1:[f6<0.5] yes=3,no=4,missing=3
		3:[f2<0.5] yes=7,no=8,missing=7
			7:leaf=-0.00511584431
			8:leaf=0.0281651244
		4:[f20<0.5] yes=9,no=10,missing=9
			9:leaf=-0.0752607733
			10:leaf=0.0843460336
	2:[f3<0.5] yes=5,no=6,missing=5
		5:[f18<0.5] yes=11,no=12,missing=11
			11:leaf=-0.00987687893
			12:leaf=0.180964395
		6:leaf=0.206210449
booster[18]:
0:[f10<0.5] yes=1,no=2,missing=1
	1:[f24<0.5] yes=3,no=4,missing=3
		3:[f22<0.5] yes=7,no=8,missing=7
			7:leaf=-0.012660007
			8:leaf=0.0331355967
		4:[f18<0.5] yes=9,no=10,missing=9
			9:leaf=0.142365351
			10:leaf=-0.1015279
	2:[f0<0.5] yes=5,no=6,missing=5
		5:[f6<0.5] yes=11,no=12,missing=11
			11:leaf=0.0263523497
			12:leaf=-0.0579929277
		6:[f12<0.5] yes=13,no=14,missing=13
			13:leaf=-0.0864661634
			14:leaf=-0.304323405
booster[19]:
0:[f26<0.5] yes=1,no=2,missing=1
	1:[f3<0.5] yes=3,no=4,missing=3
		3:[f10<0.5] yes=7,no=8,missing=7
			7:leaf=0.0163618736
			8:leaf=-0.018599052
		4:[f31<0.5] yes=9,no=10,missing=9
			9:leaf=-0.0129873417
			10:leaf=-0.231945857
	2:[f7<0.5] yes=5,no=6,missing=5
		5:[f8<0.5] yes=11,no=12,missing=11
			11:leaf=0.185896471
			12:leaf=-0.0278435405
		6:[f20<0.5] yes=13,no=14,missing=13
			13:leaf=0.0765210241
			14:leaf=-0.156977877
booster[20]:
0:[f25<0.5] yes=1,no=2,missing=1
	1:[f16<0.5] yes=3,no=4,missing=3
		3:[f7<0.5] yes=7,no=8,missing=7
			7:leaf=-0.0232989024
			8:leaf=0.0210751109
		4:[f31<0.5] yes=9,no=10,missing=9
			9:leaf=0.0485572666
			10:leaf=-0.134323373
	2:[f33<0.5] yes=5,no=6,missing=5
		5:[f17<0.5] yes=11,no=12,missing=11
			11:leaf=-0.0142205255
			12:leaf=0.0166650005
		6:[f9<0.5] yes=13,no=14,missing=13
			13:leaf=-0.0296820048
			14:leaf=-0.208325639
booster[21]:
0:[f11<0.5] yes=1,no=2,missing=1
	1:[f5<0.5] yes=3,no=4,missing=3
		3:[f26<0.5] yes=7,no=8,missing=7
			7:leaf=-0.0067246519
			8:leaf=0.0522230007
		4:leaf=0.18030718
	2:[f19<0.5] yes=5,no=6,missing=5
		5:[f24<0.5] yes=9,no=10,missing=9
			9:leaf=-0.0120579246
			10:leaf=0.0905770361
		6:[f1<0.5] yes=11,no=12,missing=11
			11:leaf=0.026147712
			12:leaf=0.21680288
booster[22]:
0:[f3<0.5] yes=1,no=2,missing=1
	1:[f24<0.5] yes=3,no=4,missing=3
		3:[f20<0.5] yes=7,no=8,missing=7
			7:leaf=0.0103228698
			8:leaf=-0.0286839139
		4:[f10<0.5] yes=9,no=10,missing=9
			9:leaf=0.134523064
			10:leaf=-0.133489028
	2:[f19<0.5] yes=5,no=6,missing=5
		5:[f13<0.5] yes=11,no=12,missing=11
			11:leaf=0.0322931595
			12:leaf=-0.0974205807
		6:[f9<0.5] yes=13,no=14,missing=13
			13:leaf=-0.0467669144
			14:leaf=-0.149327278
booster[23]:
0:[f26<0.5] yes=1,no=2,missing=1
	1:[f3<0.5] yes=3,no=4,missing=3
		3:[f16<0.5] yes=7,no=8,missing=7
			7:leaf=-0.00404174533
			8:leaf=0.020275116
		4:[f17<0.5] yes=9,no=10,missing=9
			9:leaf=-0.043324355
			10:leaf=0.0288584847
	2:[f3<0.5] yes=5,no=6,missing=5
		5:[f18<0.5] yes=11,no=12,missing=11
			11:leaf=-0.0373722315
			12:leaf=0.158810332
		6:leaf=0.18476133
booster[24]:
0:[f11<0.5] yes=1,no=2,missing=1
	1:[f5<0.5] yes=3,no=4,missing=3
		3:[f33<0.5] yes=7,no=8,missing=7
			7:leaf=-0.00151656859
			8:leaf=-0.0329973176
		4:leaf=0.144653365
	2:[f19<0.5] yes=5,no=6,missing=5
		5:[f0<0.5] yes=9,no=10,missing=9
			9:leaf=0.0124969101
			10:leaf=-0.0540259555
		6:[f12<0.5] yes=11,no=12,missing=11
			11:leaf=0.104100078
			12:leaf=-0.062202666
