booster[0]:
0:[f0<0.5] yes=1,no=2,missing=1
	1:[f20<0.5] yes=3,no=4,missing=3
		3:leaf=0.286956549
		4:[f8<0.5] yes=7,no=8,missing=7
			7:leaf=0.24000001
			8:leaf=0.0375000015
	2:[f10<0.5] yes=5,no=6,missing=5
		5:[f8<0.5] yes=9,no=10,missing=9
			9:leaf=0.120000005
			10:leaf=-0.0428571478
		6:[f4<0.5] yes=11,no=12,missing=11
			11:leaf=-0.0480000004
			12:leaf=-0.138461545
booster[1]:
0:[f0<0.5] yes=1,no=2,missing=1
	1:[f20<0.5] yes=3,no=4,missing=3
		3:leaf=0.220015988
		4:[f8<0.5] yes=7,no=8,missing=7
			7:leaf=0.198706657
			8:leaf=0.0269632451
	2:[f20<0.5] yes=5,no=6,missing=5
		5:[f18<0.5] yes=9,no=10,missing=9
			9:leaf=-0.25742048
			10:leaf=-0.0550139584
		6:[f16<0.5] yes=11,no=12,missing=11
			11:leaf=-0.186218321
			12:leaf=0.00686120382
booster[2]:
0:[f1<0.5] yes=1,no=2,missing=1
	1:[f4<0.5] yes=3,no=4,missing=3
		3:[f22<0.5] yes=7,no=8,missing=7
			7:leaf=-0.0253874976
			8:leaf=0.0614221357
		4:[f10<0.5] yes=9,no=10,missing=9
			9:leaf=-0.00103679684
			10:leaf=-0.0798980892
	2:[f10<0.5] yes=5,no=6,missing=5
		5:leaf=0.0809483975
		6:[f14<0.5] yes=11,no=12,missing=11
			11:leaf=0.0418339781
			12:leaf=0.322779328
booster[3]:
0:[f1<0.5] yes=1,no=2,missing=1
	1:[f0<0.5] yes=3,no=4,missing=3
		3:[f8<0.5] yes=7,no=8,missing=7
			7:leaf=0.216575757
			8:leaf=-0.00475691957
		4:[f20<0.5] yes=9,no=10,missing=9
			9:leaf=-0.0745986402
			10:leaf=-0.00546484534
	2:[f10<0.5] yes=5,no=6,missing=5
		5:leaf=0.0637013391
		6:[f14<0.5] yes=11,no=12,missing=11
			11:leaf=0.0349816196
			12:leaf=0.275178522
booster[4]:
0:[f1<0.5] yes=1,no=2,missing=1
	1:[f4<0.5] yes=3,no=4,missing=3
		3:[f8<0.5] yes=7,no=8,missing=7
			7:leaf=0.0692567676
			8:leaf=-0.0069586467
		4:[f12<0.5] yes=9,no=10,missing=9
			9:leaf=-0.116622999
			10:leaf=-0.0250358824
	2:[f10<0.5] yes=5,no=6,missing=5
		5:leaf=0.0501777343
		6:[f14<0.5] yes=11,no=12,missing=11
			11:leaf=0.0292623043
			12:leaf=0.240442321
booster[5]:
0:[f0<0.5] yes=1,no=2,missing=1
	1:[f20<0.5] yes=3,no=4,missing=3
		3:[f10<0.5] yes=7,no=8,missing=7
			7:leaf=0.0527311936
			8:leaf=0.226221934
		4:[f8<0.5] yes=9,no=10,missing=9
			9:leaf=0.121418647
			10:leaf=-0.00290815928
	2:[f16<0.5] yes=5,no=6,missing=5
		5:leaf=-0.151930839
		6:[f20<0.5] yes=11,no=12,missing=11
			11:leaf=-0.0522528663
			12:leaf=0.0146914674
booster[6]:
0:[f1<0.5] yes=1,no=2,missing=1
	1:[f18<0.5] yes=3,no=4,missing=3
		3:[f20<0.5] yes=7,no=8,missing=7
			7:leaf=-0.172289088
			8:leaf=0.0246862974
		4:[f3<0.5] yes=9,no=10,missing=9
			9:leaf=-0.0131467879
			10:leaf=0.037749365
	2:[f10<0.5] yes=5,no=6,missing=5
		5:[f6<0.5] yes=11,no=12,missing=11
			11:leaf=0.0088376794
			12:leaf=0.0477110296
		6:[f14<0.5] yes=13,no=14,missing=13
			13:leaf=0.018302992
			14:leaf=0.213852063
booster[7]:
0:[f1<0.5] yes=1,no=2,missing=1
	1:[f10<0.5] yes=3,no=4,missing=3
		3:[f8<0.5] yes=7,no=8,missing=7
			7:leaf=0.0993914679
			8:leaf=-0.0077835503
		4:[f22<0.5] yes=9,no=10,missing=9
			9:leaf=-0.0462097451
			10:leaf=0.0031375438
	2:[f10<0.5] yes=5,no=6,missing=5
		5:[f6<0.5] yes=11,no=12,missing=11
			11:leaf=0.00739801116
			12:leaf=0.0395877287
		6:leaf=0.129188195
booster[8]:
0:[f1<0.5] yes=1,no=2,missing=1
	1:[f18<0.5] yes=3,no=4,missing=3
		3:[f6<0.5] yes=7,no=8,missing=7
			7:leaf=-0.184446841
			8:leaf=0.0160102732
		4:[f16<0.5] yes=9,no=10,missing=9
			9:leaf=-0.0740898475
			10:leaf=0.0079651
	2:[f14<0.5] yes=5,no=6,missing=5
		5:leaf=-0.00565802865
		6:leaf=0.0960071608
booster[9]:
0:[f1<0.5] yes=1,no=2,missing=1
	1:[f4<0.5] yes=3,no=4,missing=3
		3:[f22<0.5] yes=7,no=8,missing=7
			7:leaf=-0.0179197546
			8:leaf=0.0338421948
		4:[f12<0.5] yes=9,no=10,missing=9
			9:leaf=-0.0922247618
			10:leaf=-0.00985082891
	2:[f10<0.5] yes=5,no=6,missing=5
		5:[f6<0.5] yes=11,no=12,missing=11
			11:leaf=-0.0094588818
			12:leaf=0.0165343378
		6:leaf=0.100486554
booster[10]:
0:[f1<0.5] yes=1,no=2,missing=1
	1:[f18<0.5] yes=3,no=4,missing=3
		3:[f20<0.5] yes=7,no=8,missing=7
			7:leaf=-0.132678404
			8:leaf=0.0275309607
		4:[f3<0.5] yes=9,no=10,missing=9
			9:leaf=-0.00827122573
			10:leaf=0.026532637
	2:[f14<0.5] yes=5,no=6,missing=5
		5:leaf=-0.0211013108
		6:leaf=0.0702869222
booster[11]:
0:[f20<0.5] yes=1,no=2,missing=1
	1:[f0<0.5] yes=3,no=4,missing=3
		3:[f10<0.5] yes=7,no=8,missing=7
			7:leaf=0.0182217471
			8:leaf=0.179897502
		4:[f14<0.5] yes=9,no=10,missing=9
			9:leaf=0.0846264362
			10:leaf=-0.0442689843
	2:[f14<0.5] yes=5,no=6,missing=5
		5:[f6<0.5] yes=11,no=12,missing=11
			11:leaf=0.0757548362
			12:leaf=-0.109028123
		6:[f8<0.5] yes=13,no=14,missing=13
			13:leaf=0.0448756218
			14:leaf=-0.0104856025
booster[12]:
0:[f1<0.5] yes=1,no=2,missing=1
	1:[f16<0.5] yes=3,no=4,missing=3
		3:leaf=-0.0670681074
		4:[f6<0.5] yes=7,no=8,missing=7
			7:leaf=-0.0252756923
			8:leaf=0.0130236372
	2:[f10<0.5] yes=5,no=6,missing=5
		5:[f6<0.5] yes=9,no=10,missing=9
			9:leaf=-0.0185125936
			10:leaf=0.00210869289
		6:leaf=0.0800660551
booster[13]:
0:[f20<0.5] yes=1,no=2,missing=1
	1:[f18<0.5] yes=3,no=4,missing=3
		3:leaf=-0.102710761
		4:[f0<0.5] yes=7,no=8,missing=7
			7:leaf=0.0950844064
			8:leaf=0.0132807745
	2:[f4<0.5] yes=5,no=6,missing=5
		5:[f22<0.5] yes=9,no=10,missing=9
			9:leaf=-0.0420349315
			10:leaf=0.0462792255
		6:[f22<0.5] yes=11,no=12,missing=11
			11:leaf=0.0359480381
			12:leaf=-0.0741324648
booster[14]:
0:[f1<0.5] yes=1,no=2,missing=1
	1:[f16<0.5] yes=3,no=4,missing=3
		3:leaf=-0.0567059405
		4:[f6<0.5] yes=7,no=8,missing=7
			7:leaf=-0.0178863313
			8:leaf=0.00893652998
	2:[f14<0.5] yes=5,no=6,missing=5
		5:leaf=-0.0335472859
		6:[f4<0.5] yes=9,no=10,missing=9
			9:leaf=0.0124794422
			10:leaf=0.0822158754
booster[15]:
0:[f20<0.5] yes=1,no=2,missing=1
	1:[f18<0.5] yes=3,no=4,missing=3
		3:leaf=-0.0854692906
		4:[f10<0.5] yes=7,no=8,missing=7
			7:leaf=-0.0110086259
			8:leaf=0.0588928908
	2:[f18<0.5] yes=5,no=6,missing=5
		5:[f6<0.5] yes=9,no=10,missing=9
			9:leaf=-0.06908416
			10:leaf=0.0700164959
		6:[f6<0.5] yes=11,no=12,missing=11
			11:leaf=0.0222440623
			12:leaf=-0.0299748667
booster[16]:
0:[f14<0.5] yes=1,no=2,missing=1
	1:[f22<0.5] yes=3,no=4,missing=3
		3:[f4<0.5] yes=7,no=8,missing=7
			7:leaf=0.132728502
			8:leaf=-0.00643628137
		4:[f6<0.5] yes=9,no=10,missing=9
			9:leaf=-0.00709078694
			10:leaf=-0.0935582444
	2:[f22<0.5] yes=5,no=6,missing=5
		5:[f6<0.5] yes=11,no=12,missing=11
			11:leaf=-0.108492352
			12:leaf=0.0304268077
		6:[f6<0.5] yes=13,no=14,missing=13
			13:leaf=0.0726418421
			14:leaf=0.00191669166
booster[17]:
0:[f10<0.5] yes=1,no=2,missing=1
	1:[f8<0.5] yes=3,no=4,missing=3
		3:[f22<0.5] yes=7,no=8,missing=7
			7:leaf=0.19019188
			8:leaf=-0.0629122332
		4:[f20<0.5] yes=9,no=10,missing=9
			9:leaf=-0.0678638816
			10:leaf=0.0307173878
	2:[f1<0.5] yes=5,no=6,missing=5
		5:[f20<0.5] yes=11,no=12,missing=11
			11:leaf=0.0103758899
			12:leaf=-0.0217735916
		6:leaf=0.0696785748
booster[18]:
0:[f12<0.5] yes=1,no=2,missing=1
	1:[f4<0.5] yes=3,no=4,missing=3
		3:leaf=0.0457275137
		4:leaf=-0.0747272596
	2:[f6<0.5] yes=5,no=6,missing=5
		5:[f18<0.5] yes=7,no=8,missing=7
			7:leaf=-0.103038877
			8:leaf=-0.00133402646
		6:[f22<0.5] yes=9,no=10,missing=9
			9:leaf=0.0406993181
			10:leaf=-0.0105971918
booster[19]:
0:[f22<0.5] yes=1,no=2,missing=1
	1:[f14<0.5] yes=3,no=4,missing=3
		3:[f4<0.5] yes=7,no=8,missing=7
			7:leaf=0.102403961
			8:leaf=-0.00922023598
		4:[f10<0.5] yes=9,no=10,missing=9
			9:leaf=0.0250477437
			10:leaf=-0.0616464727
	2:[f14<0.5] yes=5,no=6,missing=5
		5:[f6<0.5] yes=11,no=12,missing=11
			11:leaf=-0.00579948584
			12:leaf=-0.0679075792
		6:[f10<0.5] yes=13,no=14,missing=13
			13:leaf=-0.00897039473
			14:leaf=0.0439928472
booster[20]:
0:[f12<0.5] yes=1,no=2,missing=1
	1:[f4<0.5] yes=3,no=4,missing=3
		3:leaf=0.0309917368
		4:leaf=-0.0639826581
	2:[f6<0.5] yes=5,no=6,missing=5
		5:[f22<0.5] yes=7,no=8,missing=7
			7:leaf=-0.0496253893
			8:leaf=0.0176413897
		6:[f16<0.5] yes=9,no=10,missing=9
			9:leaf=-0.0870802999
			10:leaf=0.0155640254
booster[21]:
0:[f12<0.5] yes=1,no=2,missing=1
	1:[f4<0.5] yes=3,no=4,missing=3
		3:leaf=0.0259159114
		4:leaf=-0.0527972467
	2:[f6<0.5] yes=5,no=6,missing=5
		5:[f18<0.5] yes=7,no=8,missing=7
			7:leaf=-0.0898106247
			8:leaf=0.00191981881
		6:[f22<0.5] yes=9,no=10,missing=9
			9:leaf=0.0299602058
			10:leaf=-0.0115581462
booster[22]:
0:[f1<0.5] yes=1,no=2,missing=1
	1:[f22<0.5] yes=3,no=4,missing=3
		3:[f6<0.5] yes=7,no=8,missing=7
			7:leaf=-0.0733545199
			8:leaf=0.0166294463
		4:[f6<0.5] yes=9,no=10,missing=9
			9:leaf=0.0707264543
			10:leaf=-0.0208126176
	2:[f10<0.5] yes=5,no=6,missing=5
		5:[f6<0.5] yes=11,no=12,missing=11
			11:leaf=-0.0314179435
			12:leaf=-0.00877463073
		6:leaf=0.0632642061
booster[23]:
0:[f14<0.5] yes=1,no=2,missing=1
	1:[f22<0.5] yes=3,no=4,missing=3
		3:[f4<0.5] yes=7,no=8,missing=7
			7:leaf=0.0788252503
			8:leaf=-0.0120076109
		4:[f20<0.5] yes=9,no=10,missing=9
			9:leaf=-0.0778850392
			10:leaf=-0.0211531371
	2:[f22<0.5] yes=5,no=6,missing=5
		5:[f4<0.5] yes=11,no=12,missing=11
			11:leaf=-0.0471999086
			12:leaf=0.0223230459
		6:[f20<0.5] yes=13,no=14,missing=13
			13:leaf=0.047228992
			14:leaf=0.00131670537
booster[24]:
0:[f10<0.5] yes=1,no=2,missing=1
	1:[f0<0.5] yes=3,no=4,missing=3
		3:[f4<0.5] yes=7,no=8,missing=7
			7:leaf=-0.0441305786
			8:leaf=0.0453404412
		4:[f22<0.5] yes=9,no=10,missing=9
			9:leaf=0.114632331
			10:leaf=-0.0463075191
	2:[f1<0.5] yes=5,no=6,missing=5
		5:[f22<0.5] yes=11,no=12,missing=11
			11:leaf=-0.0263121761
			12:leaf=0.00224793493
		6:leaf=0.0551950671
