booster[0]:
0:[f27<0.5] yes=1,no=2,missing=1
	1:[f11<0.5] yes=3,no=4,missing=3
		3:[f8<0.5] yes=7,no=8,missing=7
			7:leaf=0.206896558
			8:leaf=0.550000012
		4:leaf=-0.360000014
	2:[f8<0.5] yes=5,no=6,missing=5
		5:leaf=-0.485714316
		6:leaf=-0.0545454584
booster[1]:
0:[f27<0.5] yes=1,no=2,missing=1
	1:[f11<0.5] yes=3,no=4,missing=3
		3:[f16<0.5] yes=7,no=8,missing=7
			7:leaf=0.0865521356
			8:leaf=0.412866503
		4:leaf=-0.301630229
	2:[f8<0.5] yes=5,no=6,missing=5
		5:leaf=-0.387833506
		6:leaf=-0.0441557281
booster[2]:
0:[f8<0.5] yes=1,no=2,missing=1
	1:[f16<0.5] yes=3,no=4,missing=3
		3:[f21<0.5] yes=7,no=8,missing=7
			7:leaf=-0.322676808
			8:leaf=0.129268155
		4:[f22<0.5] yes=9,no=10,missing=9
			9:leaf=0.237020895
			10:leaf=-0.0279653203
	2:[f27<0.5] yes=5,no=6,missing=5
		5:leaf=0.388588101
		6:leaf=-0.0357731394
booster[3]:
0:[f27<0.5] yes=1,no=2,missing=1
	1:[f8<0.5] yes=3,no=4,missing=3
		3:[f19<0.5] yes=7,no=8,missing=7
			7:leaf=0.115978144
			8:leaf=-0.236409217
		4:leaf=0.344103336
	2:[f8<0.5] yes=5,no=6,missing=5
		5:leaf=-0.307034671
		6:leaf=-0.0289948676
booster[4]:
0:[f4<0.5] yes=1,no=2,missing=1
	1:[f15<0.5] yes=3,no=4,missing=3
		3:[f23<0.5] yes=5,no=6,missing=5
			5:leaf=0.165174797
			6:leaf=-0.112842135
		4:[f16<0.5] yes=7,no=8,missing=7
			7:leaf=-0.337269515
			8:leaf=-0.0265575834
	2:leaf=0.311638236
booster[5]:
0:[f8<0.5] yes=1,no=2,missing=1
	1:[f16<0.5] yes=3,no=4,missing=3
		3:[f21<0.5] yes=7,no=8,missing=7
			7:leaf=-0.227657452
			8:leaf=0.0912833437
		4:[f24<0.5] yes=9,no=10,missing=9
			9:leaf=0.00925234519
			10:leaf=0.263831377
	2:[f27<0.5] yes=5,no=6,missing=5
		5:leaf=0.299765408
		6:leaf=-0.013786301
booster[6]:
0:[f4<0.5] yes=1,no=2,missing=1
	1:[f15<0.5] yes=3,no=4,missing=3
		3:[f11<0.5] yes=5,no=6,missing=5
			5:leaf=0.0988863036
			6:leaf=-0.234972313
		4:[f6<0.5] yes=7,no=8,missing=7
			7:leaf=-0.297674209
			8:leaf=-0.0944666564
	2:leaf=0.264289051
booster[7]:
0:[f27<0.5] yes=1,no=2,missing=1
	1:[f11<0.5] yes=3,no=4,missing=3
		3:[f8<0.5] yes=7,no=8,missing=7
			7:leaf=0.0590476431
			8:leaf=0.268809974
		4:leaf=-0.235503659
	2:[f18<0.5] yes=5,no=6,missing=5
		5:leaf=-0.25049302
		6:leaf=0.038975168
booster[8]:
0:[f8<0.5] yes=1,no=2,missing=1
	1:[f4<0.5] yes=3,no=4,missing=3
		3:[f24<0.5] yes=7,no=8,missing=7
			7:leaf=-0.170017362
			8:leaf=0.102910608
		4:leaf=0.186848134
	2:[f23<0.5] yes=5,no=6,missing=5
		5:leaf=0.247830644
		6:leaf=-0.00725115836
booster[9]:
0:[f12<0.5] yes=1,no=2,missing=1
	1:[f4<0.5] yes=3,no=4,missing=3
		3:[f16<0.5] yes=7,no=8,missing=7
			7:leaf=-0.161142707
			8:leaf=0.0445982292
		4:leaf=0.185662463
	2:[f7<0.5] yes=5,no=6,missing=5
		5:leaf=-0.0701989457
		6:leaf=0.307508975
booster[10]:
0:[f27<0.5] yes=1,no=2,missing=1
	1:[f4<0.5] yes=3,no=4,missing=3
		3:[f8<0.5] yes=7,no=8,missing=7
			7:leaf=-0.0254983995
			8:leaf=0.202979997
		4:leaf=0.239733681
	2:[f13<0.5] yes=5,no=6,missing=5
		5:leaf=-0.222207949
		6:leaf=0.0553476401
booster[11]:
0:[f12<0.5] yes=1,no=2,missing=1
	1:[f8<0.5] yes=3,no=4,missing=3
		3:[f21<0.5] yes=7,no=8,missing=7
			7:leaf=-0.118671872
			8:leaf=0.108369052
		4:[f27<0.5] yes=9,no=10,missing=9
			9:leaf=0.198825881
			10:leaf=-0.0329857692
	2:[f26<0.5] yes=5,no=6,missing=5
		5:leaf=0.25462985
		6:leaf=-0.0271682944
booster[12]:
0:[f11<0.5] yes=1,no=2,missing=1
	1:[f27<0.5] yes=3,no=4,missing=3
		3:[f1<0.5] yes=5,no=6,missing=5
			5:leaf=0.131364837
			6:leaf=-0.0769364387
		4:[f6<0.5] yes=7,no=8,missing=7
			7:leaf=-0.184787378
			8:leaf=0.0380864441
	2:leaf=-0.189269885
booster[13]:
0:[f19<0.5] yes=1,no=2,missing=1
	1:[f15<0.5] yes=3,no=4,missing=3
		3:[f14<0.5] yes=7,no=8,missing=7
			7:leaf=0.190117866
			8:leaf=0.0100717749
		4:[f16<0.5] yes=9,no=10,missing=9
			9:leaf=-0.206189573
			10:leaf=0.0572063588
	2:[f23<0.5] yes=5,no=6,missing=5
		5:leaf=-0.00269680866
		6:leaf=-0.218510196
booster[14]:
0:[f8<0.5] yes=1,no=2,missing=1
	1:[f24<0.5] yes=3,no=4,missing=3
		3:[f29<0.5] yes=7,no=8,missing=7
			7:leaf=-0.173055485
			8:leaf=0.0523627251
		4:[f16<0.5] yes=9,no=10,missing=9
			9:leaf=-0.0370081179
			10:leaf=0.205478251
	2:[f23<0.5] yes=5,no=6,missing=5
		5:leaf=0.194604427
		6:leaf=-0.0167652313
booster[15]:
0:[f4<0.5] yes=1,no=2,missing=1
	1:[f15<0.5] yes=3,no=4,missing=3
		3:[f21<0.5] yes=5,no=6,missing=5
			5:leaf=-0.015466325
			6:leaf=0.183143437
		4:[f6<0.5] yes=7,no=8,missing=7
			7:leaf=-0.21378313
			8:leaf=-0.0502065234
	2:leaf=0.153923005
booster[16]:
0:[f12<0.5] yes=1,no=2,missing=1
	1:[f7<0.5] yes=3,no=4,missing=3
		3:[f22<0.5] yes=7,no=8,missing=7
			7:leaf=0.0933561921
			8:leaf=-0.0903941467
		4:[f16<0.5] yes=9,no=10,missing=9
			9:leaf=-0.196165517
			10:leaf=0.00853055064
	2:[f9<0.5] yes=5,no=6,missing=5
		5:leaf=0.0444982797
		6:leaf=0.154356986
booster[17]:
0:[f27<0.5] yes=1,no=2,missing=1
	1:[f4<0.5] yes=3,no=4,missing=3
		3:[f19<0.5] yes=7,no=8,missing=7
			7:leaf=0.042427972
			8:leaf=-0.127767727
		4:leaf=0.182963252
	2:[f8<0.5] yes=5,no=6,missing=5
		5:leaf=-0.188600913
		6:leaf=0.00835006312
booster[18]:
0:[f8<0.5] yes=1,no=2,missing=1
	1:[f1<0.5] yes=3,no=4,missing=3
		3:[f24<0.5] yes=7,no=8,missing=7
			7:leaf=-0.0523425974
			8:leaf=0.135469511
		4:leaf=-0.15802069
	2:[f23<0.5] yes=5,no=6,missing=5
		5:leaf=0.174583897
		6:leaf=-0.0241529625
booster[19]:
0:[f12<0.5] yes=1,no=2,missing=1
	1:[f7<0.5] yes=3,no=4,missing=3
		3:[f1<0.5] yes=5,no=6,missing=5
			5:leaf=0.0627981946
			6:leaf=-0.104822949
		4:[f14<0.5] yes=7,no=8,missing=7
			7:leaf=-0.199913427
			8:leaf=-0.0152653167
	2:leaf=0.109047785
booster[20]:
0:[f21<0.5] yes=1,no=2,missing=1
	1:[f14<0.5] yes=3,no=4,missing=3
		3:[f18<0.5] yes=5,no=6,missing=5
			5:leaf=-0.0342562795
			6:leaf=0.11852964
		4:[f16<0.5] yes=7,no=8,missing=7
			7:leaf=-0.196758434
			8:leaf=0.0134945605
	2:leaf=0.117772371
booster[21]:
0:[f27<0.5] yes=1,no=2,missing=1
	1:[f8<0.5] yes=3,no=4,missing=3
		3:[f6<0.5] yes=5,no=6,missing=5
			5:leaf=0.040974196
			6:leaf=-0.0745425448
		4:leaf=0.161193222
	2:leaf=-0.102815494
booster[22]:
0:[f8<0.5] yes=1,no=2,missing=1
	1:[f21<0.5] yes=3,no=4,missing=3
		3:[f31<0.5] yes=5,no=6,missing=5
			5:leaf=-0.0187932868
			6:leaf=-0.161515236
		4:leaf=0.0806940645
	2:leaf=0.0968246236
booster[23]:
0:[f19<0.5] yes=1,no=2,missing=1
	1:[f15<0.5] yes=3,no=4,missing=3
		3:[f14<0.5] yes=5,no=6,missing=5
			5:leaf=0.130204394
			6:leaf=0.00410363963
		4:leaf=-0.0969526097
	2:leaf=-0.108282425
booster[24]:
0:[f27<0.5] yes=1,no=2,missing=1
	1:[f19<0.5] yes=3,no=4,missing=3
		3:[f25<0.5] yes=5,no=6,missing=5
			5:leaf=0.0972683355
			6:leaf=-0.0128836147
		4:leaf=-0.0640424415
	2:leaf=-0.0996969864
