booster[0]:
0:[f24<0.5] yes=1,no=2,missing=1
	1:[f8<0.5] yes=3,no=4,missing=3
		3:[f34<0.5] yes=7,no=8,missing=7
			7:leaf=0.192000002
			8:leaf=-0.120000005
		4:[f31<0.5] yes=9,no=10,missing=9
			9:leaf=0.480000019
			10:leaf=0.171428591
	2:[f12<0.5] yes=5,no=6,missing=5
		5:[f6<0.5] yes=11,no=12,missing=11
			11:leaf=-0.218181834
			12:leaf=0.100000009
		6:[f10<0.5] yes=13,no=14,missing=13
			13:leaf=0.27692309
			14:leaf=-0.333333373
booster[1]:
0:[f24<0.5] yes=1,no=2,missing=1
	1:[f8<0.5] yes=3,no=4,missing=3
		3:[f12<0.5] yes=7,no=8,missing=7
			7:leaf=0.0736600086
			8:leaf=0.290741801
		4:[f19<0.5] yes=9,no=10,missing=9
			9:leaf=0.402042657
			10:leaf=0.123826489
	2:[f8<0.5] yes=5,no=6,missing=5
		5:[f6<0.5] yes=11,no=12,missing=11
			11:leaf=-0.163418829
			12:leaf=0.114006482
		6:[f12<0.5] yes=13,no=14,missing=13
			13:leaf=-0.0394785814
			14:leaf=0.287783891
booster[2]:
0:[f18<0.5] yes=1,no=2,missing=1
	1:[f8<0.5] yes=3,no=4,missing=3
		3:[f24<0.5] yes=7,no=8,missing=7
			7:leaf=0.102041118
			8:leaf=-0.0551044233
		4:[f26<0.5] yes=9,no=10,missing=9
			9:leaf=0.323122621
			10:leaf=0.10892117
	2:[f31<0.5] yes=5,no=6,missing=5
		5:leaf=-0.242952362
		6:leaf=0.0563818701
booster[3]:
0:[f18<0.5] yes=1,no=2,missing=1
	1:[f8<0.5] yes=3,no=4,missing=3
		3:[f27<0.5] yes=7,no=8,missing=7
			7:leaf=0.0075119012
			8:leaf=0.17283693
		4:[f19<0.5] yes=9,no=10,missing=9
			9:leaf=0.31139487
			10:leaf=0.125663042
	2:[f30<0.5] yes=5,no=6,missing=5
		5:[f2<0.5] yes=11,no=12,missing=11
			11:leaf=-0.0417321324
			12:leaf=0.0808701441
		6:[f12<0.5] yes=13,no=14,missing=13
			13:leaf=-0.343805015
			14:leaf=0.0231672861
booster[4]:
0:[f12<0.5] yes=1,no=2,missing=1
	1:[f33<0.5] yes=3,no=4,missing=3
		3:[f18<0.5] yes=7,no=8,missing=7
			7:leaf=0.00390077778
			8:leaf=-0.262898207
		4:[f9<0.5] yes=9,no=10,missing=9
			9:leaf=0.196509212
			10:leaf=-0.0195856187
	2:[f10<0.5] yes=5,no=6,missing=5
		5:[f3<0.5] yes=11,no=12,missing=11
			11:leaf=0.285766661
			12:leaf=0.0537314378
		6:leaf=-0.111031599
booster[5]:
0:[f10<0.5] yes=1,no=2,missing=1
	1:[f12<0.5] yes=3,no=4,missing=3
		3:[f21<0.5] yes=7,no=8,missing=7
			7:leaf=-0.0107456595
			8:leaf=0.260819852
		4:[f2<0.5] yes=9,no=10,missing=9
			9:leaf=0.0939537883
			10:leaf=0.314943999
	2:[f13<0.5] yes=5,no=6,missing=5
		5:[f15<0.5] yes=11,no=12,missing=11
			11:leaf=-0.258891642
			12:leaf=0.0812532529
		6:[f20<0.5] yes=13,no=14,missing=13
			13:leaf=0.018062491
			14:leaf=0.212781951
booster[6]:
0:[f8<0.5] yes=1,no=2,missing=1
	1:[f24<0.5] yes=3,no=4,missing=3
		3:[f34<0.5] yes=7,no=8,missing=7
			7:leaf=0.0660432652
			8:leaf=-0.146244675
		4:[f3<0.5] yes=9,no=10,missing=9
			9:leaf=0.0019218591
			10:leaf=-0.224237174
	2:[f18<0.5] yes=5,no=6,missing=5
		5:[f19<0.5] yes=11,no=12,missing=11
			11:leaf=0.267529875
			12:leaf=0.0761206821
		6:leaf=-0.0598146208
booster[7]:
0:[f12<0.5] yes=1,no=2,missing=1
	1:[f19<0.5] yes=3,no=4,missing=3
		3:[f28<0.5] yes=7,no=8,missing=7
			7:leaf=0.00250591035
			8:leaf=0.310563982
		4:[f14<0.5] yes=9,no=10,missing=9
			9:leaf=-0.00454194611
			10:leaf=-0.248697206
	2:[f2<0.5] yes=5,no=6,missing=5
		5:[f8<0.5] yes=11,no=12,missing=11
			11:leaf=-0.0547259562
			12:leaf=0.178091213
		6:leaf=0.235718027
booster[8]:
0:[f6<0.5] yes=1,no=2,missing=1
	1:[f20<0.5] yes=3,no=4,missing=3
		3:[f1<0.5] yes=7,no=8,missing=7
			7:leaf=-0.0752512813
			8:leaf=0.100385554
		4:[f15<0.5] yes=9,no=10,missing=9
			9:leaf=0.135358557
			10:leaf=-0.121205084
	2:[f30<0.5] yes=5,no=6,missing=5
		5:[f18<0.5] yes=11,no=12,missing=11
			11:leaf=0.268203557
			12:leaf=0.0533157624
		6:leaf=-0.0983953401
booster[9]:
0:[f8<0.5] yes=1,no=2,missing=1
	1:[f6<0.5] yes=3,no=4,missing=3
		3:[f24<0.5] yes=7,no=8,missing=7
			7:leaf=0.0174106862
			8:leaf=-0.115196437
		4:[f30<0.5] yes=9,no=10,missing=9
			9:leaf=0.183707178
			10:leaf=-0.0822758973
	2:[f18<0.5] yes=5,no=6,missing=5
		5:[f31<0.5] yes=11,no=12,missing=11
			11:leaf=0.211523056
			12:leaf=0.00844911765
		6:leaf=-0.0615868196
booster[10]:
0:[f12<0.5] yes=1,no=2,missing=1
	1:[f33<0.5] yes=3,no=4,missing=3
		3:[f18<0.5] yes=7,no=8,missing=7
			7:leaf=-0.0106867915
			8:leaf=-0.207234412
		4:[f4<0.5] yes=9,no=10,missing=9
			9:leaf=0.173635915
			10:leaf=-0.0917464644
	2:[f33<0.5] yes=5,no=6,missing=5
		5:[f10<0.5] yes=11,no=12,missing=11
			11:leaf=0.176162392
			12:leaf=-0.0207853988
		6:leaf=-0.0783852041
booster[11]:
0:[f16<0.5] yes=1,no=2,missing=1
	1:[f34<0.5] yes=3,no=4,missing=3
		3:[f24<0.5] yes=5,no=6,missing=5
			5:leaf=0.070661895
			6:leaf=-0.0224544108
		4:leaf=-0.125611216
	2:leaf=-0.145429015
booster[12]:
0:[f14<0.5] yes=1,no=2,missing=1
	1:[f6<0.5] yes=3,no=4,missing=3
		3:[f25<0.5] yes=7,no=8,missing=7
			7:leaf=0.022305904
			8:leaf=-0.215241238
		4:[f18<0.5] yes=9,no=10,missing=9
			9:leaf=0.260995686
			10:leaf=-0.0136879813
	2:[f26<0.5] yes=5,no=6,missing=5
		5:[f24<0.5] yes=11,no=12,missing=11
			11:leaf=0.175693005
			12:leaf=-0.262009323
		6:[f19<0.5] yes=13,no=14,missing=13
			13:leaf=-0.0501815416
			14:leaf=-0.308081627
booster[13]:
0:[f8<0.5] yes=1,no=2,missing=1
	1:[f31<0.5] yes=3,no=4,missing=3
		3:[f1<0.5] yes=7,no=8,missing=7
			7:leaf=-0.0987024233
			8:leaf=0.154417068
		4:[f1<0.5] yes=9,no=10,missing=9
			9:leaf=0.0859787166
			10:leaf=-0.163479239
	2:[f18<0.5] yes=5,no=6,missing=5
		5:[f31<0.5] yes=11,no=12,missing=11
			11:leaf=0.179942906
			12:leaf=-0.00132550765
		6:leaf=-0.051282078
booster[14]:
0:[f19<0.5] yes=1,no=2,missing=1
	1:[f27<0.5] yes=3,no=4,missing=3
		3:[f2<0.5] yes=7,no=8,missing=7
			7:leaf=-0.0675490201
			8:leaf=0.11453639
		4:[f10<0.5] yes=9,no=10,missing=9
			9:leaf=0.285939932
			10:leaf=0.00172931259
	2:[f14<0.5] yes=5,no=6,missing=5
		5:[f33<0.5] yes=11,no=12,missing=11
			11:leaf=-0.0237431526
			12:leaf=0.184880242
		6:[f26<0.5] yes=13,no=14,missing=13
			13:leaf=-0.0651297718
			14:leaf=-0.258287698
booster[15]:
0:[f16<0.5] yes=1,no=2,missing=1
	1:[f20<0.5] yes=3,no=4,missing=3
		3:[f6<0.5] yes=5,no=6,missing=5
			5:leaf=-0.0371075571
			6:leaf=0.123714916
		4:[f15<0.5] yes=7,no=8,missing=7
			7:leaf=0.123190336
			8:leaf=-0.130307496
	2:leaf=-0.110932179
booster[16]:
0:[f8<0.5] yes=1,no=2,missing=1
	1:[f14<0.5] yes=3,no=4,missing=3
		3:[f26<0.5] yes=7,no=8,missing=7
			7:leaf=-0.0302674398
			8:leaf=0.0780290738
		4:[f26<0.5] yes=9,no=10,missing=9
			9:leaf=0.0381115153
			10:leaf=-0.238304943
	2:[f3<0.5] yes=5,no=6,missing=5
		5:[f24<0.5] yes=11,no=12,missing=11
			11:leaf=0.0642899722
			12:leaf=-0.0365837179
		6:[f30<0.5] yes=13,no=14,missing=13
			13:leaf=0.0540352724
			14:leaf=0.178476661
booster[17]:
0:[f12<0.5] yes=1,no=2,missing=1
	1:[f28<0.5] yes=3,no=4,missing=3
		3:[f13<0.5] yes=7,no=8,missing=7
			7:leaf=-0.0796183795
			8:leaf=0.0180481039
		4:[f19<0.5] yes=9,no=10,missing=9
			9:leaf=0.256103307
			10:leaf=-0.102356195
	2:[f2<0.5] yes=5,no=6,missing=5
		5:[f8<0.5] yes=11,no=12,missing=11
			11:leaf=-0.0923983678
			12:leaf=0.124291234
		6:leaf=0.194497198
booster[18]:
0:[f18<0.5] yes=1,no=2,missing=1
	1:[f19<0.5] yes=3,no=4,missing=3
		3:[f27<0.5] yes=7,no=8,missing=7
			7:leaf=0.0086196512
			8:leaf=0.238780469
		4:[f1<0.5] yes=9,no=10,missing=9
			9:leaf=-0.0504823662
			10:leaf=0.115533315
	2:[f26<0.5] yes=5,no=6,missing=5
		5:[f6<0.5] yes=11,no=12,missing=11
			11:leaf=-0.168511286
			12:leaf=-0.0194248464
		6:leaf=0.0779142976
booster[19]:
0:[f10<0.5] yes=1,no=2,missing=1
	1:[f21<0.5] yes=3,no=4,missing=3
		3:[f29<0.5] yes=7,no=8,missing=7
			7:leaf=-0.0153567465
			8:leaf=0.196409389
		4:leaf=0.218115419
	2:[f26<0.5] yes=5,no=6,missing=5
		5:[f13<0.5] yes=9,no=10,missing=9
			9:leaf=-0.179964304
			10:leaf=0.0100202719
		6:[f30<0.5] yes=11,no=12,missing=11
			11:leaf=0.211331666
			12:leaf=-0.00525633851
booster[20]:
0:[f12<0.5] yes=1,no=2,missing=1
	1:[f6<0.5] yes=3,no=4,missing=3
		3:[f18<0.5] yes=7,no=8,missing=7
			7:leaf=-0.00856594648
			8:leaf=-0.186472312
		4:[f14<0.5] yes=9,no=10,missing=9
			9:leaf=0.167343736
			10:leaf=-0.0438644215
	2:[f33<0.5] yes=5,no=6,missing=5
		5:[f19<0.5] yes=11,no=12,missing=11
			11:leaf=0.19654648
			12:leaf=0.0271932203
		6:leaf=-0.0870547593
booster[21]:
0:[f18<0.5] yes=1,no=2,missing=1
	1:[f12<0.5] yes=3,no=4,missing=3
		3:[f30<0.5] yes=7,no=8,missing=7
			7:leaf=-0.0289655868
			8:leaf=0.05637113
		4:[f3<0.5] yes=9,no=10,missing=9
			9:leaf=0.118680663
			10:leaf=0.00759634096
	2:[f31<0.5] yes=5,no=6,missing=5
		5:leaf=-0.117768519
		6:leaf=0.0261244066
booster[22]:
0:[f8<0.5] yes=1,no=2,missing=1
	1:[f6<0.5] yes=3,no=4,missing=3
		3:[f24<0.5] yes=7,no=8,missing=7
			7:leaf=0.0108349919
			8:leaf=-0.0890728757
		4:[f30<0.5] yes=9,no=10,missing=9
			9:leaf=0.119599395
			10:leaf=-0.0565331839
	2:[f3<0.5] yes=5,no=6,missing=5
		5:[f31<0.5] yes=11,no=12,missing=11
			11:leaf=0.0561721511
			12:leaf=-0.0486829989
		6:[f30<0.5] yes=13,no=14,missing=13
			13:leaf=0.0502631515
			14:leaf=0.166193947
booster[23]:
0:[f18<0.5] yes=1,no=2,missing=1
	1:[f19<0.5] yes=3,no=4,missing=3
		3:[f29<0.5] yes=7,no=8,missing=7
			7:leaf=0.0884656459
			8:leaf=-0.133816332
		4:[f14<0.5] yes=9,no=10,missing=9
			9:leaf=0.0114768986
			10:leaf=-0.133022577
	2:[f31<0.5] yes=5,no=6,missing=5
		5:leaf=-0.101595446
		6:leaf=0.0173125844
booster[24]:
0:[f8<0.5] yes=1,no=2,missing=1
	1:[f6<0.5] yes=3,no=4,missing=3
		3:[f24<0.5] yes=7,no=8,missing=7
			7:leaf=0.00340421475
			8:leaf=-0.0758684427
		4:[f30<0.5] yes=9,no=10,missing=9
			9:leaf=0.105135337
			10:leaf=-0.0483064316
	2:[f3<0.5] yes=5,no=6,missing=5
		5:[f26<0.5] yes=11,no=12,missing=11
			11:leaf=0.0430508554
			12:leaf=-0.0566264912
		6:leaf=0.122070447
