booster[0]:
0:[f47<0.5] yes=1,no=2,missing=1
	1:[f9<0.5] yes=3,no=4,missing=3
		3:[f37<0.5] yes=7,no=8,missing=7
			7:leaf=0.171428591
			8:leaf=-0.290909111
		4:leaf=-0.547826111
	2:[f41<0.5] yes=5,no=6,missing=5
		5:[f4<0.5] yes=9,no=10,missing=9
			9:leaf=0.495652169
			10:leaf=0.138461545
		6:[f6<0.5] yes=11,no=12,missing=11
			11:leaf=0.225000009
			12:leaf=-0.100000009
booster[1]:
0:[f47<0.5] yes=1,no=2,missing=1
	1:[f9<0.5] yes=3,no=4,missing=3
		3:[f37<0.5] yes=7,no=8,missing=7
			7:leaf=0.135491148
			8:leaf=-0.213686705
		4:leaf=-0.425388485
	2:[f41<0.5] yes=5,no=6,missing=5
		5:[f4<0.5] yes=9,no=10,missing=9
			9:leaf=0.394494504
			10:leaf=0.110114194
		6:[f11<0.5] yes=11,no=12,missing=11
			11:leaf=-0.131767258
			12:leaf=0.17594412
booster[2]:
0:[f47<0.5] yes=1,no=2,missing=1
	1:[f9<0.5] yes=3,no=4,missing=3
		3:[f25<0.5] yes=7,no=8,missing=7
			7:leaf=-0.152889788
			8:leaf=0.165845424
		4:[f12<0.5] yes=9,no=10,missing=9
			9:leaf=-0.380406857
			10:leaf=-0.115285523
	2:[f6<0.5] yes=5,no=6,missing=5
		5:[f11<0.5] yes=11,no=12,missing=11
			11:leaf=-0.0296671912
			12:leaf=0.325994939
		6:[f32<0.5] yes=13,no=14,missing=13
			13:leaf=0.159015357
			14:leaf=-0.176525727
booster[3]:
0:[f11<0.5] yes=1,no=2,missing=1
	1:[f25<0.5] yes=3,no=4,missing=3
		3:[f47<0.5] yes=7,no=8,missing=7
			7:leaf=-0.289288491
			8:leaf=-0.0458203405
		4:leaf=0.0985579789
	2:[f28<0.5] yes=5,no=6,missing=5
		5:[f33<0.5] yes=9,no=10,missing=9
			9:leaf=0.209426597
			10:leaf=-0.0754381791
		6:[f47<0.5] yes=11,no=12,missing=11
			11:leaf=-0.283859879
			12:leaf=-0.0276869386
booster[4]:
0:[f47<0.5] yes=1,no=2,missing=1
	1:[f9<0.5] yes=3,no=4,missing=3
		3:[f37<0.5] yes=7,no=8,missing=7
			7:leaf=0.122491904
			8:leaf=-0.110547639
		4:[f12<0.5] yes=9,no=10,missing=9
			9:leaf=-0.319771111
			10:leaf=-0.0577994101
	2:[f31<0.5] yes=5,no=6,missing=5
		5:[f6<0.5] yes=11,no=12,missing=11
			11:leaf=0.24771525
			12:leaf=-0.0126841171
		6:leaf=-0.0959375426
booster[5]:
0:[f9<0.5] yes=1,no=2,missing=1
	1:[f40<0.5] yes=3,no=4,missing=3
		3:[f41<0.5] yes=7,no=8,missing=7
			7:leaf=0.252205402
			8:leaf=-0.0183673035
		4:[f21<0.5] yes=9,no=10,missing=9
			9:leaf=-0.107894398
			10:leaf=0.0963861719
	2:[f23<0.5] yes=5,no=6,missing=5
		5:leaf=-0.290325493
		6:leaf=-0.079415001
booster[6]:
0:[f9<0.5] yes=1,no=2,missing=1
	1:[f10<0.5] yes=3,no=4,missing=3
		3:[f6<0.5] yes=7,no=8,missing=7
			7:leaf=0.150321245
			8:leaf=-0.198993489
		4:[f1<0.5] yes=9,no=10,missing=9
			9:leaf=0.0309242643
			10:leaf=-0.305081487
	2:[f47<0.5] yes=5,no=6,missing=5
		5:[f1<0.5] yes=11,no=12,missing=11
			11:leaf=-0.281365871
			12:leaf=-0.0558054671
		6:leaf=-0.0154238939
booster[7]:
0:[f47<0.5] yes=1,no=2,missing=1
	1:[f9<0.5] yes=3,no=4,missing=3
		3:[f32<0.5] yes=7,no=8,missing=7
			7:leaf=-0.00920486357
			8:leaf=-0.241717666
		4:[f1<0.5] yes=9,no=10,missing=9
			9:leaf=-0.26257661
			10:leaf=-0.0478101224
	2:[f31<0.5] yes=5,no=6,missing=5
		5:[f5<0.5] yes=11,no=12,missing=11
			11:leaf=0.184018791
			12:leaf=-0.0887300819
		6:leaf=-0.102424517
booster[8]:
0:[f25<0.5] yes=1,no=2,missing=1
	1:[f53<0.5] yes=3,no=4,missing=3
		3:[f38<0.5] yes=7,no=8,missing=7
			7:leaf=-0.135664791
			8:leaf=0.0293253828
		4:leaf=0.181491092
	2:[f23<0.5] yes=5,no=6,missing=5
		5:leaf=0.225574374
		6:leaf=0.0299860593
booster[9]:
0:[f9<0.5] yes=1,no=2,missing=1
	1:[f21<0.5] yes=3,no=4,missing=3
		3:[f13<0.5] yes=7,no=8,missing=7
			7:leaf=0.0355129465
			8:leaf=-0.188251391
		4:[f10<0.5] yes=9,no=10,missing=9
			9:leaf=0.260703892
			10:leaf=-0.0435883626
	2:[f33<0.5] yes=5,no=6,missing=5
		5:[f23<0.5] yes=11,no=12,missing=11
			11:leaf=-0.257728219
			12:leaf=-0.0682075098
		6:leaf=0.0153776081
booster[10]:
0:[f25<0.5] yes=1,no=2,missing=1
	1:[f6<0.5] yes=3,no=4,missing=3
		3:[f10<0.5] yes=5,no=6,missing=5
			5:leaf=0.0608844832
			6:leaf=-0.191028059
		4:[f10<0.5] yes=7,no=8,missing=7
			7:leaf=-0.21626775
			8:leaf=0.0712029263
	2:leaf=0.148263544
booster[11]:
0:[f40<0.5] yes=1,no=2,missing=1
	1:[f41<0.5] yes=3,no=4,missing=3
		3:[f23<0.5] yes=7,no=8,missing=7
			7:leaf=0.236003429
			8:leaf=-0.0443175472
		4:[f34<0.5] yes=9,no=10,missing=9
			9:leaf=-0.127018303
			10:leaf=0.158682689
	2:[f32<0.5] yes=5,no=6,missing=5
		5:[f12<0.5] yes=11,no=12,missing=11
			11:leaf=-0.0644662008
			12:leaf=0.11813926
		6:leaf=-0.224578485
booster[12]:
0:[f9<0.5] yes=1,no=2,missing=1
	1:[f21<0.5] yes=3,no=4,missing=3
		3:[f13<0.5] yes=7,no=8,missing=7
			7:leaf=0.0363400578
			8:leaf=-0.141294286
		4:[f4<0.5] yes=9,no=10,missing=9
			9:leaf=-0.00293728686
			10:leaf=0.282822847
	2:[f23<0.5] yes=5,no=6,missing=5
		5:leaf=-0.219349414
		6:leaf=0.0122923385
booster[13]:
0:[f47<0.5] yes=1,no=2,missing=1
	1:[f31<0.5] yes=3,no=4,missing=3
		3:[f55<0.5] yes=7,no=8,missing=7
			7:leaf=0.115985163
			8:leaf=-0.115685567
		4:leaf=0.0790930167
	2:[f31<0.5] yes=5,no=6,missing=5
		5:[f11<0.5] yes=9,no=10,missing=9
			9:leaf=-0.00533575751
			10:leaf=0.180183962
		6:leaf=-0.09191975
booster[14]:
0:[f9<0.5] yes=1,no=2,missing=1
	1:[f21<0.5] yes=3,no=4,missing=3
		3:[f28<0.5] yes=7,no=8,missing=7
			7:leaf=0.0319511183
			8:leaf=-0.146159217
		4:[f33<0.5] yes=9,no=10,missing=9
			9:leaf=0.202300891
			10:leaf=-0.0343459398
	2:[f23<0.5] yes=5,no=6,missing=5
		5:leaf=-0.189094961
		6:leaf=0.0181651488
booster[15]:
0:[f43<0.5] yes=1,no=2,missing=1
	1:[f32<0.5] yes=3,no=4,missing=3
		3:[f9<0.5] yes=5,no=6,missing=5
			5:leaf=0.0307800733
			6:leaf=-0.103341289
		4:[f5<0.5] yes=7,no=8,missing=7
			7:leaf=-0.166561335
			8:leaf=0.0113571296
	2:leaf=0.143876404
booster[16]:
0:[f25<0.5] yes=1,no=2,missing=1
	1:[f6<0.5] yes=3,no=4,missing=3
		3:[f10<0.5] yes=7,no=8,missing=7
			7:leaf=0.0656919181
			8:leaf=-0.169393972
		4:[f34<0.5] yes=9,no=10,missing=9
			9:leaf=-0.17312479
			10:leaf=0.111562826
	2:[f23<0.5] yes=5,no=6,missing=5
		5:leaf=0.166310683
		6:leaf=0.00954222586
booster[17]:
0:[f47<0.5] yes=1,no=2,missing=1
	1:[f15<0.5] yes=3,no=4,missing=3
		3:[f21<0.5] yes=7,no=8,missing=7
			7:leaf=-0.0425528735
			8:leaf=0.104335137
		4:leaf=-0.140424967
	2:[f31<0.5] yes=5,no=6,missing=5
		5:[f11<0.5] yes=9,no=10,missing=9
			9:leaf=0.000668932393
			10:leaf=0.15813686
		6:leaf=-0.0749032348
booster[18]:
0:[f25<0.5] yes=1,no=2,missing=1
	1:[f53<0.5] yes=3,no=4,missing=3
		3:[f28<0.5] yes=7,no=8,missing=7
			7:leaf=-0.00489405775
			8:leaf=-0.166995883
		4:leaf=0.136906922
	2:[f23<0.5] yes=5,no=6,missing=5
		5:leaf=0.144842476
		6:leaf=0.0139464466
booster[19]:
0:[f43<0.5] yes=1,no=2,missing=1
	1:[f32<0.5] yes=3,no=4,missing=3
		3:[f9<0.5] yes=5,no=6,missing=5
			5:leaf=0.0332613736
			6:leaf=-0.0884411633
		4:[f5<0.5] yes=7,no=8,missing=7
			7:leaf=-0.145728797
			8:leaf=0.00688611157
	2:leaf=0.120550595
booster[20]:
0:[f47<0.5] yes=1,no=2,missing=1
	1:[f6<0.5] yes=3,no=4,missing=3
		3:[f10<0.5] yes=7,no=8,missing=7
			7:leaf=0.0395457447
			8:leaf=-0.114108674
		4:[f10<0.5] yes=9,no=10,missing=9
			9:leaf=-0.213292509
			10:leaf=0.045166932
	2:[f31<0.5] yes=5,no=6,missing=5
		5:[f11<0.5] yes=11,no=12,missing=11
			11:leaf=0.000119252953
			12:leaf=0.141903251
		6:leaf=-0.0569990315
booster[21]:
0:[f25<0.5] yes=1,no=2,missing=1
	1:[f32<0.5] yes=3,no=4,missing=3
		3:[f2<0.5] yes=5,no=6,missing=5
			5:leaf=0.0232557133
			6:leaf=-0.0828326792
		4:[f6<0.5] yes=7,no=8,missing=7
			7:leaf=0.00376527989
			8:leaf=-0.189826325
	2:leaf=0.0931136683
booster[22]:
0:[f47<0.5] yes=1,no=2,missing=1
	1:[f31<0.5] yes=3,no=4,missing=3
		3:[f55<0.5] yes=7,no=8,missing=7
			7:leaf=0.10730017
			8:leaf=-0.0873114839
		4:leaf=0.0703029633
	2:[f31<0.5] yes=5,no=6,missing=5
		5:[f11<0.5] yes=9,no=10,missing=9
			9:leaf=-0.00416240655
			10:leaf=0.126631141
		6:leaf=-0.0510919616
booster[23]:
0:[f32<0.5] yes=1,no=2,missing=1
	1:[f20<0.5] yes=3,no=4,missing=3
		3:[f35<0.5] yes=7,no=8,missing=7
			7:leaf=0.0106880367
			8:leaf=0.126436695
		4:leaf=-0.0736401305
	2:[f6<0.5] yes=5,no=6,missing=5
		5:leaf=-0.00971533265
		6:leaf=-0.148085535
booster[24]:
0:[f43<0.5] yes=1,no=2,missing=1
	1:[f32<0.5] yes=3,no=4,missing=3
		3:[f9<0.5] yes=5,no=6,missing=5
			5:leaf=0.0260298382
			6:leaf=-0.0729631037
		4:[f6<0.5] yes=7,no=8,missing=7
			7:leaf=-0.0256552901
			8:leaf=-0.15271017
	2:leaf=0.0985649824
