booster[0]:
0:[f8<0.5] yes=1,no=2,missing=1
	1:leaf=-0.480000019
	2:[f4<0.5] yes=3,no=4,missing=3
		3:leaf=-0.163636371
		4:leaf=-0
booster[1]:
0:[f24<0.5] yes=1,no=2,missing=1
	1:leaf=-0.370389014
	2:[f4<0.5] yes=3,no=4,missing=3
		3:leaf=-0.125159875
		4:leaf=-0
booster[2]:
0:[f24<0.5] yes=1,no=2,missing=1
	1:[f6<0.5] yes=3,no=4,missing=3
		3:leaf=-0.361623168
		4:[f1<0.5] yes=7,no=8,missing=7
			7:leaf=-0.26100266
			8:leaf=0.0736921281
	2:[f4<0.5] yes=5,no=6,missing=5
		5:leaf=-0.102642156
		6:leaf=-0
booster[3]:
0:[f21<0.5] yes=1,no=2,missing=1
	1:[f4<0.5] yes=3,no=4,missing=3
		3:[f17<0.5] yes=7,no=8,missing=7
			7:leaf=-0.348384559
			8:leaf=-0.0853530914
		4:leaf=-0
	2:[f9<0.5] yes=5,no=6,missing=5
		5:leaf=-0.113120846
		6:leaf=0.0175236575
booster[4]:
0:[f24<0.5] yes=1,no=2,missing=1
	1:[f6<0.5] yes=3,no=4,missing=3
		3:leaf=-0.299012899
		4:[f1<0.5] yes=7,no=8,missing=7
			7:leaf=-0.192790166
			8:leaf=0.0821225643
	2:[f4<0.5] yes=5,no=6,missing=5
		5:leaf=-0.0419217162
		6:leaf=-0
booster[5]:
0:[f21<0.5] yes=1,no=2,missing=1
	1:[f17<0.5] yes=3,no=4,missing=3
		3:leaf=-0.269898891
		4:leaf=-0.0287402198
	2:[f9<0.5] yes=5,no=6,missing=5
		5:leaf=-0.066038996
		6:leaf=0.0337977335
booster[6]:
0:[f0<0.5] yes=1,no=2,missing=1
	1:[f6<0.5] yes=3,no=4,missing=3
		3:leaf=-0.236348793
		4:[f1<0.5] yes=5,no=6,missing=5
			5:leaf=-0.146694899
			6:leaf=0.0808981657
	2:leaf=0.0330439769
booster[7]:
0:[f8<0.5] yes=1,no=2,missing=1
	1:[f6<0.5] yes=3,no=4,missing=3
		3:leaf=-0.242157578
		4:[f3<0.5] yes=7,no=8,missing=7
			7:leaf=0.0405893549
			8:leaf=-0.173916891
	2:[f20<0.5] yes=5,no=6,missing=5
		5:leaf=0.0727680176
		6:leaf=-0.0355003402
booster[8]:
0:[f19<0.5] yes=1,no=2,missing=1
	1:[f24<0.5] yes=3,no=4,missing=3
		3:[f6<0.5] yes=5,no=6,missing=5
			5:leaf=-0.20476532
			6:leaf=0.0103133358
		4:leaf=0.0937163234
	2:leaf=-0.222500876
booster[9]:
0:[f19<0.5] yes=1,no=2,missing=1
	1:[f24<0.5] yes=3,no=4,missing=3
		3:[f6<0.5] yes=5,no=6,missing=5
			5:leaf=-0.187648475
			6:leaf=0.00815953687
		4:leaf=0.0743105784
	2:leaf=-0.202973604
booster[10]:
0:[f21<0.5] yes=1,no=2,missing=1
	1:[f17<0.5] yes=3,no=4,missing=3
		3:leaf=-0.203952461
		4:leaf=0.045057036
	2:[f9<0.5] yes=5,no=6,missing=5
		5:leaf=-0.0334445648
		6:leaf=0.0767074972
booster[11]:
0:[f24<0.5] yes=1,no=2,missing=1
	1:[f6<0.5] yes=3,no=4,missing=3
		3:leaf=-0.188367635
		4:[f12<0.5] yes=5,no=6,missing=5
			5:leaf=-0.106200308
			6:leaf=0.0727369338
	2:leaf=0.029140668
booster[12]:
0:[f19<0.5] yes=1,no=2,missing=1
	1:[f24<0.5] yes=3,no=4,missing=3
		3:[f25<0.5] yes=5,no=6,missing=5
			5:leaf=-0.108660817
			6:leaf=0.0186023973
		4:leaf=0.0686185583
	2:leaf=-0.166327447
booster[13]:
0:[f21<0.5] yes=1,no=2,missing=1
	1:[f17<0.5] yes=3,no=4,missing=3
		3:leaf=-0.169571191
		4:leaf=0.0500574447
	2:[f1<0.5] yes=5,no=6,missing=5
		5:leaf=-0.0213722177
		6:leaf=0.0742512569
booster[14]:
0:[f0<0.5] yes=1,no=2,missing=1
	1:[f6<0.5] yes=3,no=4,missing=3
		3:leaf=-0.140998051
		4:[f12<0.5] yes=5,no=6,missing=5
			5:leaf=-0.0808107704
			6:leaf=0.0787974298
	2:leaf=0.0478123836
booster[15]:
0:[f18<0.5] yes=1,no=2,missing=1
	1:[f12<0.5] yes=3,no=4,missing=3
		3:leaf=-0.152285367
		4:[f21<0.5] yes=5,no=6,missing=5
			5:leaf=0.0448592156
			6:leaf=-0.016392922
	2:leaf=0.0624241829
booster[16]:
0:[f24<0.5] yes=1,no=2,missing=1
	1:[f25<0.5] yes=3,no=4,missing=3
		3:leaf=-0.116044849
		4:leaf=0.0174605157
	2:leaf=0.0382654369
booster[17]:
0:[f21<0.5] yes=1,no=2,missing=1
	1:[f17<0.5] yes=3,no=4,missing=3
		3:leaf=-0.146153733
		4:leaf=0.0760607794
	2:[f12<0.5] yes=5,no=6,missing=5
		5:leaf=0.0677653775
		6:leaf=-0.00972754974
booster[18]:
0:[f24<0.5] yes=1,no=2,missing=1
	1:[f25<0.5] yes=3,no=4,missing=3
		3:leaf=-0.0975121409
		4:leaf=0.0141867362
	2:leaf=0.0387219079
booster[19]:
0:[f12<0.5] yes=1,no=2,missing=1
	1:[f18<0.5] yes=3,no=4,missing=3
		3:leaf=-0.133518428
		4:leaf=0.0552879311
	2:[f21<0.5] yes=5,no=6,missing=5
		5:leaf=0.0620089024
		6:leaf=-0.00560838031
booster[20]:
0:[f21<0.5] yes=1,no=2,missing=1
	1:[f17<0.5] yes=3,no=4,missing=3
		3:leaf=-0.129234448
		4:leaf=0.0758702755
	2:[f1<0.5] yes=5,no=6,missing=5
		5:leaf=-0.0118263857
		6:leaf=0.0699840412
booster[21]:
0:[f24<0.5] yes=1,no=2,missing=1
	1:[f12<0.5] yes=3,no=4,missing=3
		3:leaf=-0.0888815671
		4:leaf=0.00725548668
	2:leaf=0.0435935929
booster[22]:
0:[f18<0.5] yes=1,no=2,missing=1
	1:[f12<0.5] yes=3,no=4,missing=3
		3:leaf=-0.116838537
		4:[f21<0.5] yes=5,no=6,missing=5
			5:leaf=0.055857446
			6:leaf=-0.010447369
	2:leaf=0.0592927486
booster[23]:
0:[f24<0.5] yes=1,no=2,missing=1
	1:[f25<0.5] yes=3,no=4,missing=3
		3:leaf=-0.0772567168
		4:leaf=0.0147222644
	2:leaf=0.0377616584
booster[24]:
0:[f21<0.5] yes=1,no=2,missing=1
	1:[f17<0.5] yes=3,no=4,missing=3
		3:leaf=-0.117507048
		4:leaf=0.0699869692
	2:[f1<0.5] yes=5,no=6,missing=5
		5:leaf=-0.0099203568
		6:leaf=0.0668516457
