booster[0]:
0:[f69<0.5] yes=1,no=2,missing=1
	1:[f38<0.5] yes=3,no=4,missing=3
		3:leaf=0.561904788
		4:[f1<0.5] yes=7,no=8,missing=7
			7:leaf=0.378947377
			8:leaf=-0.0857142955
	2:[f10<0.5] yes=5,no=6,missing=5
		5:leaf=-0.480000019
		6:leaf=-0
booster[1]:
0:[f69<0.5] yes=1,no=2,missing=1
	1:[f68<0.5] yes=3,no=4,missing=3
		3:leaf=0.41202262
		4:[f1<0.5] yes=7,no=8,missing=7
			7:leaf=0.263450116
			8:leaf=-0.147454873
	2:[f10<0.5] yes=5,no=6,missing=5
		5:leaf=-0.383998752
		6:leaf=-0
booster[2]:
0:[f69<0.5] yes=1,no=2,missing=1
	1:[f46<0.5] yes=3,no=4,missing=3
		3:[f4<0.5] yes=7,no=8,missing=7
			7:leaf=0.379533708
			8:leaf=0.0705241859
		4:[f1<0.5] yes=9,no=10,missing=9
			9:leaf=0.241881356
			10:leaf=-0.215563834
	2:[f10<0.5] yes=5,no=6,missing=5
		5:leaf=-0.328125358
		6:leaf=-0
booster[3]:
0:[f69<0.5] yes=1,no=2,missing=1
	1:[f38<0.5] yes=3,no=4,missing=3
		3:leaf=0.347988516
		4:[f75<0.5] yes=7,no=8,missing=7
			7:leaf=0.181704521
			8:leaf=-0.180003181
	2:[f10<0.5] yes=5,no=6,missing=5
		5:leaf=-0.289715081
		6:leaf=-0
booster[4]:
0:[f69<0.5] yes=1,no=2,missing=1
	1:[f38<0.5] yes=3,no=4,missing=3
		3:leaf=0.318868041
		4:[f70<0.5] yes=7,no=8,missing=7
			7:leaf=0.14543438
			8:leaf=-0.190744236
	2:[f9<0.5] yes=5,no=6,missing=5
		5:leaf=-0.0138322795
		6:leaf=-0.284325868
booster[5]:
0:[f69<0.5] yes=1,no=2,missing=1
	1:[f38<0.5] yes=3,no=4,missing=3
		3:leaf=0.29624781
		4:[f14<0.5] yes=7,no=8,missing=7
			7:leaf=0.149589285
			8:leaf=-0.144053683
	2:[f4<0.5] yes=5,no=6,missing=5
		5:leaf=0.00387113984
		6:leaf=-0.248801678
booster[6]:
0:[f70<0.5] yes=1,no=2,missing=1
	1:[f75<0.5] yes=3,no=4,missing=3
		3:[f41<0.5] yes=7,no=8,missing=7
			7:leaf=0.259446889
			8:leaf=-0.00175968942
		4:[f22<0.5] yes=9,no=10,missing=9
			9:leaf=0.0449413247
			10:leaf=-0.282956749
	2:[f9<0.5] yes=5,no=6,missing=5
		5:leaf=0.0900544524
		6:leaf=-0.311280817
booster[7]:
0:[f2<0.5] yes=1,no=2,missing=1
	1:[f38<0.5] yes=3,no=4,missing=3
		3:leaf=0.187327534
		4:[f83<0.5] yes=5,no=6,missing=5
			5:leaf=-0.191252723
			6:leaf=0.212494448
	2:leaf=0.283135772
booster[8]:
0:[f2<0.5] yes=1,no=2,missing=1
	1:[f80<0.5] yes=3,no=4,missing=3
		3:[f70<0.5] yes=5,no=6,missing=5
			5:leaf=0.14515695
			6:leaf=-0.173611999
		4:leaf=-0.244589135
	2:leaf=0.258011162
booster[9]:
0:[f71<0.5] yes=1,no=2,missing=1
	1:[f81<0.5] yes=3,no=4,missing=3
		3:[f80<0.5] yes=7,no=8,missing=7
			7:leaf=0.239988849
			8:leaf=-0.0588887408
		4:[f42<0.5] yes=9,no=10,missing=9
			9:leaf=-0.221821576
			10:leaf=0.0239651315
	2:[f68<0.5] yes=5,no=6,missing=5
		5:leaf=-0.271778136
		6:leaf=0.0560864806
booster[10]:
0:[f2<0.5] yes=1,no=2,missing=1
	1:[f78<0.5] yes=3,no=4,missing=3
		3:[f74<0.5] yes=5,no=6,missing=5
			5:leaf=-0.184596717
			6:leaf=0.195463359
		4:leaf=0.211838916
	2:leaf=0.230766669
booster[11]:
0:[f38<0.5] yes=1,no=2,missing=1
	1:leaf=0.181301281
	2:[f2<0.5] yes=3,no=4,missing=3
		3:[f78<0.5] yes=5,no=6,missing=5
			5:leaf=-0.156226143
			6:leaf=0.163561955
		4:leaf=0.186650619
booster[12]:
0:[f66<0.5] yes=1,no=2,missing=1
	1:[f2<0.5] yes=3,no=4,missing=3
		3:[f78<0.5] yes=5,no=6,missing=5
			5:leaf=-0.129518777
			6:leaf=0.158886313
		4:leaf=0.184840471
	2:leaf=0.212833926
booster[13]:
0:[f71<0.5] yes=1,no=2,missing=1
	1:[f70<0.5] yes=3,no=4,missing=3
		3:[f68<0.5] yes=5,no=6,missing=5
			5:leaf=0.23562257
			6:leaf=-0.0064090821
		4:[f22<0.5] yes=7,no=8,missing=7
			7:leaf=0.0304444823
			8:leaf=-0.158336788
	2:leaf=-0.115715437
booster[14]:
0:[f38<0.5] yes=1,no=2,missing=1
	1:leaf=0.150395066
	2:[f78<0.5] yes=3,no=4,missing=3
		3:[f10<0.5] yes=5,no=6,missing=5
			5:leaf=-0.110350989
			6:leaf=0.101213299
		4:leaf=0.135014817
booster[15]:
0:[f69<0.5] yes=1,no=2,missing=1
	1:[f14<0.5] yes=3,no=4,missing=3
		3:[f79<0.5] yes=5,no=6,missing=5
			5:leaf=0.183303848
			6:leaf=-0.014283658
		4:[f82<0.5] yes=7,no=8,missing=7
			7:leaf=0.0595865138
			8:leaf=-0.158933461
	2:leaf=-0.109495349
booster[16]:
0:[f66<0.5] yes=1,no=2,missing=1
	1:[f78<0.5] yes=3,no=4,missing=3
		3:[f10<0.5] yes=5,no=6,missing=5
			5:leaf=-0.10382814
			6:leaf=0.101150014
		4:leaf=0.12725535
	2:leaf=0.171172127
booster[17]:
0:[f4<0.5] yes=1,no=2,missing=1
	1:[f53<0.5] yes=3,no=4,missing=3
		3:[f71<0.5] yes=5,no=6,missing=5
			5:leaf=0.18783316
			6:leaf=-0.101183362
		4:leaf=-0.0566612966
	2:leaf=-0.11519178
booster[18]:
0:[f70<0.5] yes=1,no=2,missing=1
	1:[f75<0.5] yes=3,no=4,missing=3
		3:[f42<0.5] yes=5,no=6,missing=5
			5:leaf=0.0122083277
			6:leaf=0.184559226
		4:leaf=-0.0974765643
	2:leaf=-0.0835067332
booster[19]:
0:[f38<0.5] yes=1,no=2,missing=1
	1:leaf=0.126754344
	2:[f54<0.5] yes=3,no=4,missing=3
		3:[f1<0.5] yes=5,no=6,missing=5
			5:leaf=-0.0223742779
			6:leaf=-0.136735871
		4:leaf=0.0562053882
booster[20]:
0:[f56<0.5] yes=1,no=2,missing=1
	1:[f27<0.5] yes=3,no=4,missing=3
		3:[f70<0.5] yes=5,no=6,missing=5
			5:leaf=0.171481535
			6:leaf=-0.0505000763
		4:[f55<0.5] yes=7,no=8,missing=7
			7:leaf=0.00277329469
			8:leaf=-0.0857594237
	2:leaf=-0.109240532
booster[21]:
0:[f52<0.5] yes=1,no=2,missing=1
	1:[f10<0.5] yes=3,no=4,missing=3
		3:[f27<0.5] yes=5,no=6,missing=5
			5:leaf=-0.0114305504
			6:leaf=-0.139639318
		4:leaf=0.101210453
	2:leaf=0.123559281
booster[22]:
0:[f69<0.5] yes=1,no=2,missing=1
	1:[f14<0.5] yes=3,no=4,missing=3
		3:[f79<0.5] yes=5,no=6,missing=5
			5:leaf=0.142596588
			6:leaf=-0.02844394
		4:leaf=-0.0560856536
	2:leaf=-0.0963978022
booster[23]:
0:[f71<0.5] yes=1,no=2,missing=1
	1:[f81<0.5] yes=3,no=4,missing=3
		3:[f70<0.5] yes=5,no=6,missing=5
			5:leaf=0.170039862
			6:leaf=-0.00540836575
		4:leaf=-0.103522711
	2:leaf=-0.0867292732
booster[24]:
0:[f10<0.5] yes=1,no=2,missing=1
	1:[f64<0.5] yes=3,no=4,missing=3
		3:[f42<0.5] yes=5,no=6,missing=5
			5:leaf=-0.133867741
			6:leaf=0.0243604239
		4:leaf=0.0586990081
	2:leaf=0.0918163508
