booster[0]:
0:[f54<0.5] yes=1,no=2,missing=1
	1:[f46<0.5] yes=3,no=4,missing=3
		3:[f28<0.5] yes=7,no=8,missing=7
			7:leaf=0.300000012
			8:leaf=-0.284210533
		4:leaf=-0.497560978
	2:[f10<0.5] yes=5,no=6,missing=5
		5:[f44<0.5] yes=9,no=10,missing=9
			9:leaf=-0.280000001
			10:leaf=0.157894745
		6:[f37<0.5] yes=11,no=12,missing=11
			11:leaf=0.547826111
			12:leaf=0.163636371
booster[1]:
0:[f53<0.5] yes=1,no=2,missing=1
	1:[f10<0.5] yes=3,no=4,missing=3
		3:[f44<0.5] yes=7,no=8,missing=7
			7:leaf=-0.251342654
			8:leaf=0.139074504
		4:[f52<0.5] yes=9,no=10,missing=9
			9:leaf=0.398814708
			10:leaf=0.0175081976
	2:[f35<0.5] yes=5,no=6,missing=5
		5:[f46<0.5] yes=11,no=12,missing=11
			11:leaf=0.360203803
			12:leaf=-0.157870978
		6:[f6<0.5] yes=13,no=14,missing=13
			13:leaf=-0.195223451
			14:leaf=-0.423966527
booster[2]:
0:[f46<0.5] yes=1,no=2,missing=1
	1:[f37<0.5] yes=3,no=4,missing=3
		3:[f32<0.5] yes=7,no=8,missing=7
			7:leaf=0.370926917
			8:leaf=-0.0568686984
		4:[f27<0.5] yes=9,no=10,missing=9
			9:leaf=-0.229400948
			10:leaf=0.114714965
	2:[f54<0.5] yes=5,no=6,missing=5
		5:[f44<0.5] yes=11,no=12,missing=11
			11:leaf=-0.379772991
			12:leaf=-0.187375754
		6:[f10<0.5] yes=13,no=14,missing=13
			13:leaf=-0.125827253
			14:leaf=0.311515272
booster[3]:
0:[f10<0.5] yes=1,no=2,missing=1
	1:[f44<0.5] yes=3,no=4,missing=3
		3:[f3<0.5] yes=7,no=8,missing=7
			7:leaf=-0.342690557
			8:leaf=-0.0855891556
		4:[f37<0.5] yes=9,no=10,missing=9
			9:leaf=0.132014155
			10:leaf=-0.239870638
	2:[f46<0.5] yes=5,no=6,missing=5
		5:[f37<0.5] yes=11,no=12,missing=11
			11:leaf=0.336897522
			12:leaf=0.0941391066
		6:[f54<0.5] yes=13,no=14,missing=13
			13:leaf=-0.225372896
			14:leaf=0.275924444
booster[4]:
0:[f10<0.5] yes=1,no=2,missing=1
	1:[f44<0.5] yes=3,no=4,missing=3
		3:[f48<0.5] yes=7,no=8,missing=7
			7:leaf=-0.271376431
			8:leaf=0.0578327328
		4:[f6<0.5] yes=9,no=10,missing=9
			9:leaf=0.103001773
			10:leaf=-0.225232318
	2:[f37<0.5] yes=5,no=6,missing=5
		5:[f46<0.5] yes=11,no=12,missing=11
			11:leaf=0.297056556
			12:leaf=0.0807968825
		6:[f46<0.5] yes=13,no=14,missing=13
			13:leaf=0.0743349269
			14:leaf=-0.152882382
booster[5]:
0:[f35<0.5] yes=1,no=2,missing=1
	1:[f37<0.5] yes=3,no=4,missing=3
		3:[f19<0.5] yes=7,no=8,missing=7
			7:leaf=0.286751121
			8:leaf=0.0629285574
		4:leaf=-0.0489794798
	2:[f46<0.5] yes=5,no=6,missing=5
		5:[f28<0.5] yes=9,no=10,missing=9
			9:leaf=0.206281021
			10:leaf=-0.134356886
		6:[f6<0.5] yes=11,no=12,missing=11
			11:leaf=-0.112393074
			12:leaf=-0.305093855
booster[6]:
0:[f54<0.5] yes=1,no=2,missing=1
	1:[f46<0.5] yes=3,no=4,missing=3
		3:[f6<0.5] yes=7,no=8,missing=7
			7:leaf=0.17013225
			8:leaf=-0.184070662
		4:[f32<0.5] yes=9,no=10,missing=9
			9:leaf=-0.251672626
			10:leaf=-0.0475634597
	2:[f9<0.5] yes=5,no=6,missing=5
		5:[f20<0.5] yes=11,no=12,missing=11
			11:leaf=0.252099842
			12:leaf=-0.0422686376
		6:leaf=-0.156625092
booster[7]:
0:[f37<0.5] yes=1,no=2,missing=1
	1:[f39<0.5] yes=3,no=4,missing=3
		3:[f24<0.5] yes=7,no=8,missing=7
			7:leaf=-0.0542949885
			8:leaf=0.2316477
		4:[f35<0.5] yes=9,no=10,missing=9
			9:leaf=0.133518487
			10:leaf=-0.219692007
	2:[f3<0.5] yes=5,no=6,missing=5
		5:[f10<0.5] yes=11,no=12,missing=11
			11:leaf=-0.288582087
			12:leaf=-0.0469526164
		6:[f33<0.5] yes=13,no=14,missing=13
			13:leaf=0.124532893
			14:leaf=-0.068367742
booster[8]:
0:[f10<0.5] yes=1,no=2,missing=1
	1:[f3<0.5] yes=3,no=4,missing=3
		3:[f37<0.5] yes=7,no=8,missing=7
			7:leaf=-0.0337813981
			8:leaf=-0.256784379
		4:[f46<0.5] yes=9,no=10,missing=9
			9:leaf=0.219416276
			10:leaf=-0.123553745
	2:[f54<0.5] yes=5,no=6,missing=5
		5:[f46<0.5] yes=11,no=12,missing=11
			11:leaf=0.140072897
			12:leaf=-0.139436156
		6:[f37<0.5] yes=13,no=14,missing=13
			13:leaf=0.252016872
			14:leaf=0.0321727507
booster[9]:
0:[f6<0.5] yes=1,no=2,missing=1
	1:[f34<0.5] yes=3,no=4,missing=3
		3:[f37<0.5] yes=7,no=8,missing=7
			7:leaf=0.150878072
			8:leaf=-0.00841242634
		4:leaf=-0.186043173
	2:[f21<0.5] yes=5,no=6,missing=5
		5:leaf=-0.231930554
		6:leaf=0.0676198825
booster[10]:
0:[f10<0.5] yes=1,no=2,missing=1
	1:[f44<0.5] yes=3,no=4,missing=3
		3:[f3<0.5] yes=7,no=8,missing=7
			7:leaf=-0.213031814
			8:leaf=0.00549943373
		4:[f37<0.5] yes=9,no=10,missing=9
			9:leaf=0.0949092135
			10:leaf=-0.138255477
	2:[f54<0.5] yes=5,no=6,missing=5
		5:[f46<0.5] yes=11,no=12,missing=11
			11:leaf=0.118889205
			12:leaf=-0.113634035
		6:[f37<0.5] yes=13,no=14,missing=13
			13:leaf=0.227962896
			14:leaf=0.0280511808
booster[11]:
0:[f6<0.5] yes=1,no=2,missing=1
	1:[f9<0.5] yes=3,no=4,missing=3
		3:[f28<0.5] yes=7,no=8,missing=7
			7:leaf=0.164028868
			8:leaf=-0.01806565
		4:leaf=-0.137227625
	2:[f21<0.5] yes=5,no=6,missing=5
		5:[f28<0.5] yes=9,no=10,missing=9
			9:leaf=-0.0780815482
			10:leaf=-0.236012191
		6:leaf=0.0639592186
booster[12]:
0:[f48<0.5] yes=1,no=2,missing=1
	1:[f44<0.5] yes=3,no=4,missing=3
		3:[f6<0.5] yes=7,no=8,missing=7
			7:leaf=-0.0514329337
			8:leaf=-0.241865292
		4:[f37<0.5] yes=9,no=10,missing=9
			9:leaf=0.113080665
			10:leaf=-0.123607554
	2:[f27<0.5] yes=5,no=6,missing=5
		5:leaf=-0.0168591682
		6:leaf=0.242597967
booster[13]:
0:[f10<0.5] yes=1,no=2,missing=1
	1:[f15<0.5] yes=3,no=4,missing=3
		3:[f21<0.5] yes=7,no=8,missing=7
			7:leaf=-0.14795728
			8:leaf=0.0741103292
		4:[f32<0.5] yes=9,no=10,missing=9
			9:leaf=-0.0672698021
			10:leaf=0.201628312
	2:[f13<0.5] yes=5,no=6,missing=5
		5:[f54<0.5] yes=11,no=12,missing=11
			11:leaf=-0.0849122033
			12:leaf=0.126025602
		6:leaf=0.18438372
booster[14]:
0:[f42<0.5] yes=1,no=2,missing=1
	1:[f34<0.5] yes=3,no=4,missing=3
		3:[f6<0.5] yes=5,no=6,missing=5
			5:leaf=0.0511647202
			6:leaf=-0.119351387
		4:leaf=-0.210613966
	2:leaf=0.182512298
booster[15]:
0:[f48<0.5] yes=1,no=2,missing=1
	1:[f33<0.5] yes=3,no=4,missing=3
		3:[f24<0.5] yes=7,no=8,missing=7
			7:leaf=-0.145367622
			8:leaf=0.0555916056
		4:[f47<0.5] yes=9,no=10,missing=9
			9:leaf=-0.23585555
			10:leaf=0.0535425656
	2:[f27<0.5] yes=5,no=6,missing=5
		5:leaf=-0.0093423957
		6:leaf=0.21178712
booster[16]:
0:[f35<0.5] yes=1,no=2,missing=1
	1:[f4<0.5] yes=3,no=4,missing=3
		3:[f10<0.5] yes=7,no=8,missing=7
			7:leaf=0.0425971821
			8:leaf=0.190104589
		4:leaf=-0.0583004206
	2:[f6<0.5] yes=5,no=6,missing=5
		5:[f2<0.5] yes=9,no=10,missing=9
			9:leaf=0.0697348043
			10:leaf=-0.121714644
		6:[f15<0.5] yes=11,no=12,missing=11
			11:leaf=-0.197825938
			12:leaf=-0.0404293127
booster[17]:
0:[f48<0.5] yes=1,no=2,missing=1
	1:[f31<0.5] yes=3,no=4,missing=3
		3:[f4<0.5] yes=7,no=8,missing=7
			7:leaf=-0.101957276
			8:leaf=0.0869802311
		4:[f21<0.5] yes=9,no=10,missing=9
			9:leaf=-0.103056654
			10:leaf=0.279255867
	2:[f27<0.5] yes=5,no=6,missing=5
		5:leaf=0.00359947258
		6:leaf=0.189677387
booster[18]:
0:[f9<0.5] yes=1,no=2,missing=1
	1:[f12<0.5] yes=3,no=4,missing=3
		3:[f33<0.5] yes=5,no=6,missing=5
			5:leaf=0.0888260752
			6:leaf=-0.0818801224
		4:[f46<0.5] yes=7,no=8,missing=7
			7:leaf=0.00187082589
			8:leaf=-0.149312139
	2:leaf=-0.118976526
booster[19]:
0:[f39<0.5] yes=1,no=2,missing=1
	1:[f22<0.5] yes=3,no=4,missing=3
		3:[f24<0.5] yes=7,no=8,missing=7
			7:leaf=-0.0614307038
			8:leaf=0.0954473242
		4:leaf=-0.138146847
	2:[f35<0.5] yes=5,no=6,missing=5
		5:leaf=0.0837936625
		6:leaf=-0.188123196
booster[20]:
0:[f46<0.5] yes=1,no=2,missing=1
	1:[f28<0.5] yes=3,no=4,missing=3
		3:[f6<0.5] yes=7,no=8,missing=7
			7:leaf=0.21394977
			8:leaf=-0.000368342822
		4:[f10<0.5] yes=9,no=10,missing=9
			9:leaf=-0.149141103
			10:leaf=0.00719562033
	2:[f28<0.5] yes=5,no=6,missing=5
		5:[f32<0.5] yes=11,no=12,missing=11
			11:leaf=-0.200979158
			12:leaf=-0.0567938127
		6:[f31<0.5] yes=13,no=14,missing=13
			13:leaf=-0.0352858566
			14:leaf=0.163601846
booster[21]:
0:[f44<0.5] yes=1,no=2,missing=1
	1:[f23<0.5] yes=3,no=4,missing=3
		3:[f46<0.5] yes=7,no=8,missing=7
			7:leaf=0.0119685568
			8:leaf=-0.155453354
		4:leaf=0.0778476
	2:[f37<0.5] yes=5,no=6,missing=5
		5:[f39<0.5] yes=9,no=10,missing=9
			9:leaf=0.186937615
			10:leaf=-0.0507313386
		6:[f3<0.5] yes=11,no=12,missing=11
			11:leaf=-0.193347856
			12:leaf=0.0798755959
booster[22]:
0:[f48<0.5] yes=1,no=2,missing=1
	1:[f29<0.5] yes=3,no=4,missing=3
		3:[f35<0.5] yes=5,no=6,missing=5
			5:leaf=0.0663423538
			6:leaf=-0.0738605857
		4:leaf=0.0885226578
	2:leaf=0.111396648
booster[23]:
0:[f34<0.5] yes=1,no=2,missing=1
	1:[f6<0.5] yes=3,no=4,missing=3
		3:[f9<0.5] yes=5,no=6,missing=5
			5:leaf=0.0695585757
			6:leaf=-0.0845180303
		4:[f21<0.5] yes=7,no=8,missing=7
			7:leaf=-0.14705801
			8:leaf=0.0863468274
	2:leaf=-0.113093533
booster[24]:
0:[f48<0.5] yes=1,no=2,missing=1
	1:[f24<0.5] yes=3,no=4,missing=3
		3:[f44<0.5] yes=5,no=6,missing=5
			5:leaf=-0.188448414
			6:leaf=0.0153230447
		4:[f14<0.5] yes=7,no=8,missing=7
			7:leaf=0.05482262
			8:leaf=-0.127563477
	2:leaf=0.0955249295
