booster[0]:
0:[f27<0.5] yes=1,no=2,missing=1
	1:[f23<0.5] yes=3,no=4,missing=3
		3:[f15<0.5] yes=7,no=8,missing=7
			7:leaf=0.00631579012
			8:leaf=-0.24000001
		4:[f9<0.5] yes=9,no=10,missing=9
			9:leaf=0.360000014
			10:leaf=-0
	2:[f12<0.5] yes=5,no=6,missing=5
		5:[f2<0.5] yes=11,no=12,missing=11
			11:leaf=0.456
			12:leaf=0.200000018
		6:[f2<0.5] yes=13,no=14,missing=13
			13:leaf=0.0666666701
			14:leaf=-0
booster[1]:
0:[f27<0.5] yes=1,no=2,missing=1
	1:[f23<0.5] yes=3,no=4,missing=3
		3:[f1<0.5] yes=7,no=8,missing=7
			7:leaf=-0.0936670005
			8:leaf=0.0895037353
		4:[f9<0.5] yes=9,no=10,missing=9
			9:leaf=0.281667143
			10:leaf=-0
	2:[f6<0.5] yes=5,no=6,missing=5
		5:[f22<0.5] yes=11,no=12,missing=11
			11:leaf=0.353426725
			12:leaf=0.110411286
		6:[f20<0.5] yes=13,no=14,missing=13
			13:leaf=0.240054995
			14:leaf=-0.0924566239
booster[2]:
0:[f20<0.5] yes=1,no=2,missing=1
	1:[f27<0.5] yes=3,no=4,missing=3
		3:[f25<0.5] yes=7,no=8,missing=7
			7:leaf=-0.000929726928
			8:leaf=0.147734046
		4:[f7<0.5] yes=9,no=10,missing=9
			9:leaf=0.328043908
			10:leaf=0.0633235574
	2:[f1<0.5] yes=5,no=6,missing=5
		5:[f10<0.5] yes=11,no=12,missing=11
			11:leaf=-0.370340765
			12:leaf=0.0418437086
		6:[f7<0.5] yes=13,no=14,missing=13
			13:leaf=0.18759425
			14:leaf=0.00609993236
booster[3]:
0:[f27<0.5] yes=1,no=2,missing=1
	1:[f29<0.5] yes=3,no=4,missing=3
		3:[f26<0.5] yes=7,no=8,missing=7
			7:leaf=-0.00858257245
			8:leaf=-0.308576256
		4:leaf=0.269131273
	2:[f12<0.5] yes=5,no=6,missing=5
		5:[f2<0.5] yes=9,no=10,missing=9
			9:leaf=0.290174395
			10:leaf=0.107097067
		6:leaf=0.00326709799
booster[4]:
0:[f5<0.5] yes=1,no=2,missing=1
	1:[f20<0.5] yes=3,no=4,missing=3
		3:[f22<0.5] yes=7,no=8,missing=7
			7:leaf=0.15760012
			8:leaf=-0.0383980274
		4:[f1<0.5] yes=9,no=10,missing=9
			9:leaf=-0.181467503
			10:leaf=0.110819727
	2:[f2<0.5] yes=5,no=6,missing=5
		5:[f10<0.5] yes=11,no=12,missing=11
			11:leaf=-0.010328589
			12:leaf=0.258316159
		6:leaf=0.357349545
booster[5]:
0:[f26<0.5] yes=1,no=2,missing=1
	1:[f15<0.5] yes=3,no=4,missing=3
		3:[f12<0.5] yes=5,no=6,missing=5
			5:leaf=0.126437128
			6:leaf=-0.0602771416
		4:[f10<0.5] yes=7,no=8,missing=7
			7:leaf=-0.180695087
			8:leaf=0.0176513456
	2:leaf=-0.279985338
booster[6]:
0:[f27<0.5] yes=1,no=2,missing=1
	1:[f7<0.5] yes=3,no=4,missing=3
		3:[f21<0.5] yes=7,no=8,missing=7
			7:leaf=0.0469763316
			8:leaf=-0.224390671
		4:[f20<0.5] yes=9,no=10,missing=9
			9:leaf=-0.0114516122
			10:leaf=-0.243124664
	2:[f2<0.5] yes=5,no=6,missing=5
		5:[f11<0.5] yes=11,no=12,missing=11
			11:leaf=0.0841985196
			12:leaf=0.273319721
		6:[f6<0.5] yes=13,no=14,missing=13
			13:leaf=0.132616594
			14:leaf=-0.0489973724
booster[7]:
0:[f19<0.5] yes=1,no=2,missing=1
	1:[f7<0.5] yes=3,no=4,missing=3
		3:[f23<0.5] yes=5,no=6,missing=5
			5:leaf=0.0135636032
			6:leaf=0.202518031
		4:[f21<0.5] yes=7,no=8,missing=7
			7:leaf=-0.1415461
			8:leaf=0.144057706
	2:leaf=0.268864751
booster[8]:
0:[f27<0.5] yes=1,no=2,missing=1
	1:[f29<0.5] yes=3,no=4,missing=3
		3:[f25<0.5] yes=7,no=8,missing=7
			7:leaf=-0.109601922
			8:leaf=0.00326270354
		4:leaf=0.179581091
	2:[f5<0.5] yes=5,no=6,missing=5
		5:[f12<0.5] yes=9,no=10,missing=9
			9:leaf=0.104262002
			10:leaf=-0.0352008902
		6:leaf=0.229456306
booster[9]:
0:[f5<0.5] yes=1,no=2,missing=1
	1:[f19<0.5] yes=3,no=4,missing=3
		3:[f23<0.5] yes=7,no=8,missing=7
			7:leaf=-0.0482028127
			8:leaf=0.115518682
		4:leaf=0.233054578
	2:[f2<0.5] yes=5,no=6,missing=5
		5:[f11<0.5] yes=9,no=10,missing=9
			9:leaf=0.147112906
			10:leaf=-0.0787980556
		6:leaf=0.277460754
booster[10]:
0:[f26<0.5] yes=1,no=2,missing=1
	1:[f20<0.5] yes=3,no=4,missing=3
		3:[f22<0.5] yes=5,no=6,missing=5
			5:leaf=0.140092373
			6:leaf=0.00572500564
		4:[f10<0.5] yes=7,no=8,missing=7
			7:leaf=-0.131128401
			8:leaf=0.0539488457
	2:leaf=-0.218507603
booster[11]:
0:[f27<0.5] yes=1,no=2,missing=1
	1:[f6<0.5] yes=3,no=4,missing=3
		3:[f29<0.5] yes=7,no=8,missing=7
			7:leaf=-0.067478314
			8:leaf=0.131790072
		4:[f20<0.5] yes=9,no=10,missing=9
			9:leaf=0.111299001
			10:leaf=-0.00982434861
	2:[f2<0.5] yes=5,no=6,missing=5
		5:[f11<0.5] yes=11,no=12,missing=11
			11:leaf=0.0450219475
			12:leaf=0.238009021
		6:[f10<0.5] yes=13,no=14,missing=13
			13:leaf=-0.0313958041
			14:leaf=0.136896238
booster[12]:
0:[f5<0.5] yes=1,no=2,missing=1
	1:[f2<0.5] yes=3,no=4,missing=3
		3:[f28<0.5] yes=7,no=8,missing=7
			7:leaf=0.0848421454
			8:leaf=-0.105432928
		4:[f10<0.5] yes=9,no=10,missing=9
			9:leaf=-0.102026112
			10:leaf=0.0308752973
	2:[f2<0.5] yes=5,no=6,missing=5
		5:[f11<0.5] yes=11,no=12,missing=11
			11:leaf=0.11865595
			12:leaf=-0.0469366163
		6:leaf=0.248822764
booster[13]:
0:[f19<0.5] yes=1,no=2,missing=1
	1:[f5<0.5] yes=3,no=4,missing=3
		3:[f6<0.5] yes=5,no=6,missing=5
			5:leaf=-0.0549269095
			6:leaf=0.0396341644
		4:[f10<0.5] yes=7,no=8,missing=7
			7:leaf=0.0313863605
			8:leaf=0.223818868
	2:leaf=0.206587359
booster[14]:
0:[f12<0.5] yes=1,no=2,missing=1
	1:[f15<0.5] yes=3,no=4,missing=3
		3:[f3<0.5] yes=7,no=8,missing=7
			7:leaf=0.0945452526
			8:leaf=-0.0447038934
		4:[f27<0.5] yes=9,no=10,missing=9
			9:leaf=-0.0936939642
			10:leaf=0.040384274
	2:[f28<0.5] yes=5,no=6,missing=5
		5:[f1<0.5] yes=11,no=12,missing=11
			11:leaf=-0.0541617498
			12:leaf=0.13099587
		6:leaf=-0.290057123
booster[15]:
0:[f20<0.5] yes=1,no=2,missing=1
	1:[f16<0.5] yes=3,no=4,missing=3
		3:[f8<0.5] yes=7,no=8,missing=7
			7:leaf=0.138056874
			8:leaf=-0.0795147866
		4:[f24<0.5] yes=9,no=10,missing=9
			9:leaf=-0.0466038659
			10:leaf=0.225043401
	2:[f1<0.5] yes=5,no=6,missing=5
		5:[f10<0.5] yes=11,no=12,missing=11
			11:leaf=-0.241118476
			12:leaf=0.0210827887
		6:[f15<0.5] yes=13,no=14,missing=13
			13:leaf=0.0851942003
			14:leaf=-0.0228081308
booster[16]:
0:[f23<0.5] yes=1,no=2,missing=1
	1:[f5<0.5] yes=3,no=4,missing=3
		3:[f29<0.5] yes=7,no=8,missing=7
			7:leaf=-0.0361062065
			8:leaf=0.104289539
		4:[f2<0.5] yes=9,no=10,missing=9
			9:leaf=0.00544627197
			10:leaf=0.199425146
	2:[f16<0.5] yes=5,no=6,missing=5
		5:leaf=0.230246693
		6:[f2<0.5] yes=11,no=12,missing=11
			11:leaf=0.122219935
			12:leaf=-0.134696588
booster[17]:
0:[f27<0.5] yes=1,no=2,missing=1
	1:[f6<0.5] yes=3,no=4,missing=3
		3:[f29<0.5] yes=7,no=8,missing=7
			7:leaf=-0.0508624762
			8:leaf=0.0955441445
		4:[f1<0.5] yes=9,no=10,missing=9
			9:leaf=-0.00476200879
			10:leaf=0.101625264
	2:[f22<0.5] yes=5,no=6,missing=5
		5:[f20<0.5] yes=11,no=12,missing=11
			11:leaf=0.211676344
			12:leaf=0.0383782834
		6:[f7<0.5] yes=13,no=14,missing=13
			13:leaf=0.10493385
			14:leaf=-0.0953704864
booster[18]:
0:[f12<0.5] yes=1,no=2,missing=1
	1:[f9<0.5] yes=3,no=4,missing=3
		3:[f20<0.5] yes=7,no=8,missing=7
			7:leaf=0.104759566
			8:leaf=-0.0177391898
		4:[f20<0.5] yes=9,no=10,missing=9
			9:leaf=-0.215007648
			10:leaf=0.0417410284
	2:[f28<0.5] yes=5,no=6,missing=5
		5:[f7<0.5] yes=11,no=12,missing=11
			11:leaf=0.090987578
			12:leaf=-0.0975799412
		6:leaf=-0.239918068
booster[19]:
0:[f5<0.5] yes=1,no=2,missing=1
	1:[f23<0.5] yes=3,no=4,missing=3
		3:[f1<0.5] yes=7,no=8,missing=7
			7:leaf=-0.0426280238
			8:leaf=0.0236559231
		4:[f16<0.5] yes=9,no=10,missing=9
			9:leaf=0.199788198
			10:leaf=-0.0366482101
	2:[f2<0.5] yes=5,no=6,missing=5
		5:[f11<0.5] yes=11,no=12,missing=11
			11:leaf=0.108273827
			12:leaf=-0.0512373559
		6:leaf=0.189564571
booster[20]:
0:[f27<0.5] yes=1,no=2,missing=1
	1:[f12<0.5] yes=3,no=4,missing=3
		3:[f9<0.5] yes=7,no=8,missing=7
			7:leaf=0.0268912874
			8:leaf=-0.145944923
		4:[f28<0.5] yes=9,no=10,missing=9
			9:leaf=0.0152322557
			10:leaf=-0.206392348
	2:[f6<0.5] yes=5,no=6,missing=5
		5:[f7<0.5] yes=11,no=12,missing=11
			11:leaf=0.141555369
			12:leaf=0.0400996953
		6:[f16<0.5] yes=13,no=14,missing=13
			13:leaf=0.0403076746
			14:leaf=-0.0385930724
booster[21]:
0:[f5<0.5] yes=1,no=2,missing=1
	1:[f18<0.5] yes=3,no=4,missing=3
		3:[f24<0.5] yes=7,no=8,missing=7
			7:leaf=-0.0284087788
			8:leaf=0.0685975999
		4:leaf=0.101827092
	2:[f11<0.5] yes=5,no=6,missing=5
		5:leaf=0.13698557
		6:leaf=0.0183182936
booster[22]:
0:[f27<0.5] yes=1,no=2,missing=1
	1:[f15<0.5] yes=3,no=4,missing=3
		3:[f7<0.5] yes=7,no=8,missing=7
			7:leaf=0.0321549997
			8:leaf=-0.0495340265
		4:[f10<0.5] yes=9,no=10,missing=9
			9:leaf=-0.165064752
			10:leaf=0.00639555324
	2:[f22<0.5] yes=5,no=6,missing=5
		5:[f20<0.5] yes=11,no=12,missing=11
			11:leaf=0.178574294
			12:leaf=0.0295180939
		6:[f7<0.5] yes=13,no=14,missing=13
			13:leaf=0.068316862
			14:leaf=-0.0741141587
booster[23]:
0:[f12<0.5] yes=1,no=2,missing=1
	1:[f17<0.5] yes=3,no=4,missing=3
		3:[f9<0.5] yes=7,no=8,missing=7
			7:leaf=0.0532600768
			8:leaf=-0.104041301
		4:[f11<0.5] yes=9,no=10,missing=9
			9:leaf=-0.154680982
			10:leaf=0.0899084434
	2:[f28<0.5] yes=5,no=6,missing=5
		5:[f7<0.5] yes=11,no=12,missing=11
			11:leaf=0.0599100851
			12:leaf=-0.0813124329
		6:leaf=-0.182887405
booster[24]:
0:[f23<0.5] yes=1,no=2,missing=1
	1:[f8<0.5] yes=3,no=4,missing=3
		3:[f10<0.5] yes=7,no=8,missing=7
			7:leaf=-0.0220411681
			8:leaf=0.0736318007
		4:[f11<0.5] yes=9,no=10,missing=9
			9:leaf=-0.179506645
			10:leaf=0.0202437807
	2:[f16<0.5] yes=5,no=6,missing=5
		5:leaf=0.17983678
		6:[f2<0.5] yes=11,no=12,missing=11
			11:leaf=0.0917240307
			12:leaf=-0.0957524404
