booster[0]:
0:[f40<0.5] yes=1,no=2,missing=1
	1:[f9<0.5] yes=3,no=4,missing=3
		3:[f36<0.5] yes=7,no=8,missing=7
			7:leaf=0.247058839
			8:leaf=-0.284210533
		4:[f29<0.5] yes=9,no=10,missing=9
			9:leaf=0.536842108
			10:leaf=0.225000009
	2:[f39<0.5] yes=5,no=6,missing=5
		5:[f2<0.5] yes=11,no=12,missing=11
			11:leaf=-0.481690168
			12:leaf=-0.0967741981
		6:leaf=0.300000012
booster[1]:
0:[f9<0.5] yes=1,no=2,missing=1
	1:[f36<0.5] yes=3,no=4,missing=3
		3:[f33<0.5] yes=7,no=8,missing=7
			7:leaf=0.233067393
			8:leaf=-0.244461164
		4:[f13<0.5] yes=9,no=10,missing=9
			9:leaf=-0.382814765
			10:leaf=-0.0197175946
	2:[f42<0.5] yes=5,no=6,missing=5
		5:[f27<0.5] yes=11,no=12,missing=11
			11:leaf=0.256892592
			12:leaf=-0.233773887
		6:leaf=0.393152088
booster[2]:
0:[f40<0.5] yes=1,no=2,missing=1
	1:[f27<0.5] yes=3,no=4,missing=3
		3:[f33<0.5] yes=7,no=8,missing=7
			7:leaf=0.391064584
			8:leaf=0.135682091
		4:[f36<0.5] yes=9,no=10,missing=9
			9:leaf=0.276080906
			10:leaf=-0.213671729
	2:[f36<0.5] yes=5,no=6,missing=5
		5:[f20<0.5] yes=11,no=12,missing=11
			11:leaf=0.218634173
			12:leaf=-0.320204139
		6:[f2<0.5] yes=13,no=14,missing=13
			13:leaf=-0.374555439
			14:leaf=-0.0937861949
booster[3]:
0:[f9<0.5] yes=1,no=2,missing=1
	1:[f40<0.5] yes=3,no=4,missing=3
		3:[f33<0.5] yes=7,no=8,missing=7
			7:leaf=0.0982271209
			8:leaf=-0.243543133
		4:[f2<0.5] yes=9,no=10,missing=9
			9:leaf=-0.298054427
			10:leaf=-0.0874463096
	2:[f36<0.5] yes=5,no=6,missing=5
		5:[f4<0.5] yes=11,no=12,missing=11
			11:leaf=0.390527219
			12:leaf=0.0294514764
		6:[f42<0.5] yes=13,no=14,missing=13
			13:leaf=-0.157956719
			14:leaf=0.202238306
booster[4]:
0:[f9<0.5] yes=1,no=2,missing=1
	1:[f16<0.5] yes=3,no=4,missing=3
		3:[f26<0.5] yes=7,no=8,missing=7
			7:leaf=-0.129021004
			8:leaf=-0.297629297
		4:[f4<0.5] yes=9,no=10,missing=9
			9:leaf=0.138395265
			10:leaf=-0.237308875
	2:[f27<0.5] yes=5,no=6,missing=5
		5:[f25<0.5] yes=11,no=12,missing=11
			11:leaf=0.324383944
			12:leaf=0.0586183965
		6:[f20<0.5] yes=13,no=14,missing=13
			13:leaf=0.119959436
			14:leaf=-0.215756387
booster[5]:
0:[f36<0.5] yes=1,no=2,missing=1
	1:[f20<0.5] yes=3,no=4,missing=3
		3:[f15<0.5] yes=7,no=8,missing=7
			7:leaf=0.296391249
			8:leaf=0.0251256898
		4:[f40<0.5] yes=9,no=10,missing=9
			9:leaf=0.107388027
			10:leaf=-0.24130933
	2:[f27<0.5] yes=5,no=6,missing=5
		5:[f40<0.5] yes=11,no=12,missing=11
			11:leaf=0.254224151
			12:leaf=-0.0943832621
		6:[f24<0.5] yes=13,no=14,missing=13
			13:leaf=-0.234036922
			14:leaf=-0.0397040322
booster[6]:
0:[f33<0.5] yes=1,no=2,missing=1
	1:[f27<0.5] yes=3,no=4,missing=3
		3:[f1<0.5] yes=7,no=8,missing=7
			7:leaf=0.315282464
			8:leaf=0.0021523051
		4:[f36<0.5] yes=9,no=10,missing=9
			9:leaf=0.142320856
			10:leaf=-0.14305675
	2:[f20<0.5] yes=5,no=6,missing=5
		5:[f40<0.5] yes=11,no=12,missing=11
			11:leaf=0.253667563
			12:leaf=-0.110449784
		6:[f17<0.5] yes=13,no=14,missing=13
			13:leaf=-0.274790227
			14:leaf=-0.057457909
booster[7]:
0:[f40<0.5] yes=1,no=2,missing=1
	1:[f9<0.5] yes=3,no=4,missing=3
		3:[f33<0.5] yes=7,no=8,missing=7
			7:leaf=0.0795051903
			8:leaf=-0.173168465
		4:[f29<0.5] yes=9,no=10,missing=9
			9:leaf=0.274946719
			10:leaf=0.0580544844
	2:[f2<0.5] yes=5,no=6,missing=5
		5:[f36<0.5] yes=11,no=12,missing=11
			11:leaf=-0.0292747747
			12:leaf=-0.253563344
		6:[f33<0.5] yes=13,no=14,missing=13
			13:leaf=0.121362105
			14:leaf=-0.0527032353
booster[8]:
0:[f40<0.5] yes=1,no=2,missing=1
	1:[f14<0.5] yes=3,no=4,missing=3
		3:[f8<0.5] yes=7,no=8,missing=7
			7:leaf=0.220901653
			8:leaf=-0.0246357117
		4:[f29<0.5] yes=9,no=10,missing=9
			9:leaf=0.0656482428
			10:leaf=-0.177187428
	2:[f2<0.5] yes=5,no=6,missing=5
		5:[f4<0.5] yes=11,no=12,missing=11
			11:leaf=-0.0453834161
			12:leaf=-0.267764479
		6:[f33<0.5] yes=13,no=14,missing=13
			13:leaf=0.0965468436
			14:leaf=-0.0414633267
booster[9]:
0:[f36<0.5] yes=1,no=2,missing=1
	1:[f20<0.5] yes=3,no=4,missing=3
		3:[f15<0.5] yes=7,no=8,missing=7
			7:leaf=0.239023343
			8:leaf=-0.022300832
		4:[f40<0.5] yes=9,no=10,missing=9
			9:leaf=0.0596472435
			10:leaf=-0.196431875
	2:[f14<0.5] yes=5,no=6,missing=5
		5:[f26<0.5] yes=11,no=12,missing=11
			11:leaf=0.0322376713
			12:leaf=-0.137191087
		6:leaf=-0.202599987
booster[10]:
0:[f9<0.5] yes=1,no=2,missing=1
	1:[f4<0.5] yes=3,no=4,missing=3
		3:[f25<0.5] yes=7,no=8,missing=7
			7:leaf=-0.0969557986
			8:leaf=0.111376479
		4:leaf=-0.202945665
	2:[f25<0.5] yes=5,no=6,missing=5
		5:[f27<0.5] yes=9,no=10,missing=9
			9:leaf=0.224189088
			10:leaf=0.0587923639
		6:[f42<0.5] yes=11,no=12,missing=11
			11:leaf=-0.163892582
			12:leaf=0.10339646
booster[11]:
0:[f36<0.5] yes=1,no=2,missing=1
	1:[f4<0.5] yes=3,no=4,missing=3
		3:[f15<0.5] yes=7,no=8,missing=7
			7:leaf=0.23185648
			8:leaf=-0.0440861434
		4:leaf=-0.0905593112
	2:[f27<0.5] yes=5,no=6,missing=5
		5:[f40<0.5] yes=9,no=10,missing=9
			9:leaf=0.175564662
			10:leaf=-0.0786863863
		6:[f17<0.5] yes=11,no=12,missing=11
			11:leaf=-0.135191247
			12:leaf=0.0367641188
booster[12]:
0:[f33<0.5] yes=1,no=2,missing=1
	1:[f27<0.5] yes=3,no=4,missing=3
		3:[f22<0.5] yes=7,no=8,missing=7
			7:leaf=0.237911925
			8:leaf=0.0722046196
		4:[f4<0.5] yes=9,no=10,missing=9
			9:leaf=0.0423997417
			10:leaf=-0.139706492
	2:[f20<0.5] yes=5,no=6,missing=5
		5:[f40<0.5] yes=11,no=12,missing=11
			11:leaf=0.197869897
			12:leaf=-0.0320394784
		6:[f8<0.5] yes=13,no=14,missing=13
			13:leaf=-0.234468505
			14:leaf=-0.0512170307
booster[13]:
0:[f9<0.5] yes=1,no=2,missing=1
	1:[f25<0.5] yes=3,no=4,missing=3
		3:[f16<0.5] yes=7,no=8,missing=7
			7:leaf=-0.183589369
			8:leaf=0.0483495556
		4:[f4<0.5] yes=9,no=10,missing=9
			9:leaf=0.105083041
			10:leaf=-0.0924424902
	2:[f42<0.5] yes=5,no=6,missing=5
		5:[f25<0.5] yes=11,no=12,missing=11
			11:leaf=0.0782807097
			12:leaf=-0.131860569
		6:[f20<0.5] yes=13,no=14,missing=13
			13:leaf=0.222475454
			14:leaf=0.0429182053
booster[14]:
0:[f36<0.5] yes=1,no=2,missing=1
	1:[f20<0.5] yes=3,no=4,missing=3
		3:[f37<0.5] yes=7,no=8,missing=7
			7:leaf=0.238876566
			8:leaf=0.0317294225
		4:[f33<0.5] yes=9,no=10,missing=9
			9:leaf=0.0377109833
			10:leaf=-0.136433929
	2:[f14<0.5] yes=5,no=6,missing=5
		5:[f22<0.5] yes=11,no=12,missing=11
			11:leaf=0.0693968758
			12:leaf=-0.0688630044
		6:leaf=-0.162199557
booster[15]:
0:[f33<0.5] yes=1,no=2,missing=1
	1:[f27<0.5] yes=3,no=4,missing=3
		3:[f22<0.5] yes=7,no=8,missing=7
			7:leaf=0.210903585
			8:leaf=0.0576860942
		4:[f37<0.5] yes=9,no=10,missing=9
			9:leaf=-0.0759422481
			10:leaf=0.108804911
	2:[f20<0.5] yes=5,no=6,missing=5
		5:[f12<0.5] yes=11,no=12,missing=11
			11:leaf=0.106890269
			12:leaf=-0.0887709856
		6:[f8<0.5] yes=13,no=14,missing=13
			13:leaf=-0.192713067
			14:leaf=-0.0322280116
booster[16]:
0:[f9<0.5] yes=1,no=2,missing=1
	1:[f25<0.5] yes=3,no=4,missing=3
		3:[f16<0.5] yes=7,no=8,missing=7
			7:leaf=-0.15907383
			8:leaf=0.0315870345
		4:[f2<0.5] yes=9,no=10,missing=9
			9:leaf=-0.0381826758
			10:leaf=0.147623852
	2:[f42<0.5] yes=5,no=6,missing=5
		5:[f25<0.5] yes=11,no=12,missing=11
			11:leaf=0.0566943623
			12:leaf=-0.121699326
		6:[f29<0.5] yes=13,no=14,missing=13
			13:leaf=0.202052653
			14:leaf=0.0445741005
booster[17]:
0:[f4<0.5] yes=1,no=2,missing=1
	1:[f26<0.5] yes=3,no=4,missing=3
		3:[f6<0.5] yes=7,no=8,missing=7
			7:leaf=0.127729014
			8:leaf=-0.110746168
		4:[f36<0.5] yes=9,no=10,missing=9
			9:leaf=0.0405781567
			10:leaf=-0.152633905
	2:[f2<0.5] yes=5,no=6,missing=5
		5:leaf=-0.187683791
		6:[f29<0.5] yes=11,no=12,missing=11
			11:leaf=-0.0133424224
			12:leaf=0.0559996702
booster[18]:
0:[f33<0.5] yes=1,no=2,missing=1
	1:[f27<0.5] yes=3,no=4,missing=3
		3:[f22<0.5] yes=7,no=8,missing=7
			7:leaf=0.19171828
			8:leaf=0.0422938168
		4:[f37<0.5] yes=9,no=10,missing=9
			9:leaf=-0.067395404
			10:leaf=0.0939305425
	2:[f20<0.5] yes=5,no=6,missing=5
		5:[f12<0.5] yes=11,no=12,missing=11
			11:leaf=0.0941883326
			12:leaf=-0.0837128758
		6:[f2<0.5] yes=13,no=14,missing=13
			13:leaf=-0.166965753
			14:leaf=-0.016623402
booster[19]:
0:[f4<0.5] yes=1,no=2,missing=1
	1:[f26<0.5] yes=3,no=4,missing=3
		3:[f6<0.5] yes=7,no=8,missing=7
			7:leaf=0.10264346
			8:leaf=-0.0995889828
		4:[f42<0.5] yes=9,no=10,missing=9
			9:leaf=-0.108463049
			10:leaf=0.00433634454
	2:[f12<0.5] yes=5,no=6,missing=5
		5:[f25<0.5] yes=11,no=12,missing=11
			11:leaf=-0.0100260396
			12:leaf=-0.214138344
		6:leaf=0.0602401607
booster[20]:
0:[f33<0.5] yes=1,no=2,missing=1
	1:[f40<0.5] yes=3,no=4,missing=3
		3:[f2<0.5] yes=7,no=8,missing=7
			7:leaf=0.17601563
			8:leaf=-0.0546851531
		4:[f16<0.5] yes=9,no=10,missing=9
			9:leaf=-0.115349948
			10:leaf=0.0923603624
	2:[f17<0.5] yes=5,no=6,missing=5
		5:[f10<0.5] yes=11,no=12,missing=11
			11:leaf=-0.148984
			12:leaf=0.0708316565
		6:leaf=0.0852626115
booster[21]:
0:[f4<0.5] yes=1,no=2,missing=1
	1:[f16<0.5] yes=3,no=4,missing=3
		3:[f18<0.5] yes=7,no=8,missing=7
			7:leaf=-0.158341944
			8:leaf=0.0338190235
		4:[f34<0.5] yes=9,no=10,missing=9
			9:leaf=0.0230601244
			10:leaf=0.15485099
	2:[f2<0.5] yes=5,no=6,missing=5
		5:leaf=-0.156540915
		6:[f25<0.5] yes=11,no=12,missing=11
			11:leaf=0.0459736772
			12:leaf=-0.0100889932
booster[22]:
0:[f36<0.5] yes=1,no=2,missing=1
	1:[f20<0.5] yes=3,no=4,missing=3
		3:[f37<0.5] yes=7,no=8,missing=7
			7:leaf=0.201326475
			8:leaf=0.00397240883
		4:[f33<0.5] yes=9,no=10,missing=9
			9:leaf=-0.00973161496
			10:leaf=-0.10119918
	2:[f14<0.5] yes=5,no=6,missing=5
		5:[f22<0.5] yes=11,no=12,missing=11
			11:leaf=0.0693148449
			12:leaf=-0.0522808544
		6:leaf=-0.140616462
booster[23]:
0:[f4<0.5] yes=1,no=2,missing=1
	1:[f26<0.5] yes=3,no=4,missing=3
		3:[f16<0.5] yes=7,no=8,missing=7
			7:leaf=0.0031168242
			8:leaf=0.148647785
		4:[f20<0.5] yes=9,no=10,missing=9
			9:leaf=-0.0113479178
			10:leaf=-0.0906510577
	2:[f12<0.5] yes=5,no=6,missing=5
		5:leaf=-0.113809779
		6:leaf=0.0557281636
booster[24]:
0:[f9<0.5] yes=1,no=2,missing=1
	1:[f11<0.5] yes=3,no=4,missing=3
		3:[f25<0.5] yes=7,no=8,missing=7
			7:leaf=-0.0625893325
			8:leaf=0.0899980068
		4:[f34<0.5] yes=9,no=10,missing=9
			9:leaf=-0.14522399
			10:leaf=-0.00274567306
	2:[f25<0.5] yes=5,no=6,missing=5
		5:[f20<0.5] yes=11,no=12,missing=11
			11:leaf=0.138990656
			12:leaf=0.00388287031
		6:[f40<0.5] yes=13,no=14,missing=13
			13:leaf=0.0312169548
			14:leaf=-0.108999036
