booster[0]:
0:[f38<0.5] yes=1,no=2,missing=1
	1:[f6<0.5] yes=3,no=4,missing=3
		3:[f9<0.5] yes=7,no=8,missing=7
			7:leaf=0.50967747
			8:leaf=-0
		4:[f26<0.5] yes=9,no=10,missing=9
			9:leaf=-0.138461545
			10:leaf=0.257142872
	2:[f8<0.5] yes=5,no=6,missing=5
		5:[f7<0.5] yes=11,no=12,missing=11
			11:leaf=-0.443478286
			12:leaf=-0.163636371
		6:leaf=-0.0666666701
booster[1]:
0:[f31<0.5] yes=1,no=2,missing=1
	1:[f38<0.5] yes=3,no=4,missing=3
		3:[f6<0.5] yes=7,no=8,missing=7
			7:leaf=0.385559708
			8:leaf=0.103316285
		4:[f34<0.5] yes=9,no=10,missing=9
			9:leaf=-0.037054047
			10:leaf=-0.187246248
	2:[f4<0.5] yes=5,no=6,missing=5
		5:[f32<0.5] yes=11,no=12,missing=11
			11:leaf=-0.37382713
			12:leaf=-0.0918259621
		6:leaf=-0.135836244
booster[2]:
0:[f31<0.5] yes=1,no=2,missing=1
	1:[f7<0.5] yes=3,no=4,missing=3
		3:[f8<0.5] yes=7,no=8,missing=7
			7:leaf=-0.0155008025
			8:leaf=0.22584416
		4:leaf=0.373242378
	2:[f6<0.5] yes=5,no=6,missing=5
		5:[f27<0.5] yes=9,no=10,missing=9
			9:leaf=-0.213139996
			10:leaf=0.0728626251
		6:[f4<0.5] yes=11,no=12,missing=11
			11:leaf=-0.311736166
			12:leaf=-0.0194729883
booster[3]:
0:[f38<0.5] yes=1,no=2,missing=1
	1:[f7<0.5] yes=3,no=4,missing=3
		3:[f4<0.5] yes=7,no=8,missing=7
			7:leaf=0.00780981267
			8:leaf=0.301503003
		4:leaf=0.348793119
	2:[f13<0.5] yes=5,no=6,missing=5
		5:[f16<0.5] yes=9,no=10,missing=9
			9:leaf=-0.317873687
			10:leaf=-0.119603373
		6:[f6<0.5] yes=11,no=12,missing=11
			11:leaf=0.0860426426
			12:leaf=-0.173875123
booster[4]:
0:[f31<0.5] yes=1,no=2,missing=1
	1:[f38<0.5] yes=3,no=4,missing=3
		3:[f7<0.5] yes=7,no=8,missing=7
			7:leaf=0.113660201
			8:leaf=0.315603554
		4:leaf=-0.126073197
	2:[f7<0.5] yes=5,no=6,missing=5
		5:[f4<0.5] yes=9,no=10,missing=9
			9:leaf=-0.223367065
			10:leaf=-0.0612221956
		6:leaf=-0.0310124345
booster[5]:
0:[f38<0.5] yes=1,no=2,missing=1
	1:[f7<0.5] yes=3,no=4,missing=3
		3:[f17<0.5] yes=7,no=8,missing=7
			7:leaf=0.110636398
			8:leaf=-0.140602469
		4:leaf=0.296818405
	2:[f15<0.5] yes=5,no=6,missing=5
		5:[f34<0.5] yes=9,no=10,missing=9
			9:leaf=-0.108031802
			10:leaf=-0.281394362
		6:leaf=0.0119382255
booster[6]:
0:[f31<0.5] yes=1,no=2,missing=1
	1:[f4<0.5] yes=3,no=4,missing=3
		3:[f9<0.5] yes=7,no=8,missing=7
			7:leaf=0.0846227929
			8:leaf=-0.237927258
		4:[f27<0.5] yes=9,no=10,missing=9
			9:leaf=0.288535625
			10:leaf=0.0709894374
	2:[f13<0.5] yes=5,no=6,missing=5
		5:[f16<0.5] yes=11,no=12,missing=11
			11:leaf=-0.283124954
			12:leaf=0.070686996
		6:[f16<0.5] yes=13,no=14,missing=13
			13:leaf=0.0352461375
			14:leaf=-0.188115001
booster[7]:
0:[f6<0.5] yes=1,no=2,missing=1
	1:[f17<0.5] yes=3,no=4,missing=3
		3:[f11<0.5] yes=7,no=8,missing=7
			7:leaf=0.252804458
			8:leaf=-0.0280554052
		4:[f23<0.5] yes=9,no=10,missing=9
			9:leaf=-0.182051033
			10:leaf=0.0283491742
	2:[f4<0.5] yes=5,no=6,missing=5
		5:[f32<0.5] yes=11,no=12,missing=11
			11:leaf=-0.24049221
			12:leaf=-0.0570800044
		6:[f13<0.5] yes=13,no=14,missing=13
			13:leaf=-0.0672904253
			14:leaf=0.22233738
booster[8]:
0:[f7<0.5] yes=1,no=2,missing=1
	1:[f20<0.5] yes=3,no=4,missing=3
		3:[f8<0.5] yes=7,no=8,missing=7
			7:leaf=-0.0635638982
			8:leaf=0.108282857
		4:leaf=-0.27874285
	2:[f38<0.5] yes=5,no=6,missing=5
		5:leaf=0.260989249
		6:leaf=-0.0513743535
booster[9]:
0:[f32<0.5] yes=1,no=2,missing=1
	1:[f13<0.5] yes=3,no=4,missing=3
		3:[f26<0.5] yes=7,no=8,missing=7
			7:leaf=-0.233289987
			8:leaf=-0.0544634238
		4:[f6<0.5] yes=9,no=10,missing=9
			9:leaf=0.130672023
			10:leaf=-0.0629704818
	2:[f7<0.5] yes=5,no=6,missing=5
		5:[f17<0.5] yes=11,no=12,missing=11
			11:leaf=0.08663854
			12:leaf=-0.148488671
		6:leaf=0.238558665
booster[10]:
0:[f20<0.5] yes=1,no=2,missing=1
	1:[f45<0.5] yes=3,no=4,missing=3
		3:[f6<0.5] yes=5,no=6,missing=5
			5:leaf=0.131394237
			6:leaf=-0.0264611747
		4:leaf=-0.204795182
	2:leaf=-0.239077866
booster[11]:
0:[f20<0.5] yes=1,no=2,missing=1
	1:[f32<0.5] yes=3,no=4,missing=3
		3:[f13<0.5] yes=5,no=6,missing=5
			5:leaf=-0.164935097
			6:leaf=0.0412739664
		4:[f16<0.5] yes=7,no=8,missing=7
			7:leaf=-0.00206983602
			8:leaf=0.205064252
	2:leaf=-0.209177822
booster[12]:
0:[f7<0.5] yes=1,no=2,missing=1
	1:[f4<0.5] yes=3,no=4,missing=3
		3:[f8<0.5] yes=7,no=8,missing=7
			7:leaf=-0.119216964
			8:leaf=0.0646389797
		4:[f13<0.5] yes=9,no=10,missing=9
			9:leaf=-0.0585709251
			10:leaf=0.186274633
	2:[f38<0.5] yes=5,no=6,missing=5
		5:leaf=0.216648608
		6:leaf=-0.0495362766
booster[13]:
0:[f34<0.5] yes=1,no=2,missing=1
	1:[f26<0.5] yes=3,no=4,missing=3
		3:[f11<0.5] yes=5,no=6,missing=5
			5:leaf=-0.0659985319
			6:leaf=0.127415225
		4:[f11<0.5] yes=7,no=8,missing=7
			7:leaf=0.204843387
			8:leaf=-0.0810393617
	2:leaf=-0.149655506
booster[14]:
0:[f4<0.5] yes=1,no=2,missing=1
	1:[f28<0.5] yes=3,no=4,missing=3
		3:[f32<0.5] yes=7,no=8,missing=7
			7:leaf=-0.114645988
			8:leaf=0.0590613857
		4:leaf=-0.182335809
	2:[f38<0.5] yes=5,no=6,missing=5
		5:leaf=0.182294458
		6:leaf=-0.0255591478
booster[15]:
0:[f7<0.5] yes=1,no=2,missing=1
	1:[f4<0.5] yes=3,no=4,missing=3
		3:[f8<0.5] yes=7,no=8,missing=7
			7:leaf=-0.0958448872
			8:leaf=0.054853227
		4:[f13<0.5] yes=9,no=10,missing=9
			9:leaf=-0.0554128587
			10:leaf=0.154587507
	2:[f17<0.5] yes=5,no=6,missing=5
		5:leaf=0.193121165
		6:leaf=-0.0388423651
booster[16]:
0:[f45<0.5] yes=1,no=2,missing=1
	1:[f34<0.5] yes=3,no=4,missing=3
		3:[f42<0.5] yes=5,no=6,missing=5
			5:leaf=0.198326573
			6:leaf=0.018986959
		4:leaf=-0.122887857
	2:leaf=-0.153307512
booster[17]:
0:[f19<0.5] yes=1,no=2,missing=1
	1:leaf=-0.145809606
	2:[f45<0.5] yes=3,no=4,missing=3
		3:[f16<0.5] yes=5,no=6,missing=5
			5:leaf=-0.00657862937
			6:leaf=0.124925576
		4:leaf=-0.13077648
booster[18]:
0:[f7<0.5] yes=1,no=2,missing=1
	1:[f26<0.5] yes=3,no=4,missing=3
		3:[f0<0.5] yes=7,no=8,missing=7
			7:leaf=-0.101904579
			8:leaf=0.146151528
		4:[f11<0.5] yes=9,no=10,missing=9
			9:leaf=0.121408917
			10:leaf=-0.105063133
	2:[f38<0.5] yes=5,no=6,missing=5
		5:leaf=0.183993369
		6:leaf=-0.0354550108
booster[19]:
0:[f28<0.5] yes=1,no=2,missing=1
	1:[f45<0.5] yes=3,no=4,missing=3
		3:[f6<0.5] yes=7,no=8,missing=7
			7:leaf=0.0937849283
			8:leaf=-0.00650963141
		4:leaf=-0.0984541178
	2:[f0<0.5] yes=5,no=6,missing=5
		5:leaf=-0.210383967
		6:leaf=0.0793407038
booster[20]:
0:[f9<0.5] yes=1,no=2,missing=1
	1:[f34<0.5] yes=3,no=4,missing=3
		3:[f11<0.5] yes=5,no=6,missing=5
			5:leaf=-0.000710533583
			6:leaf=0.119439103
		4:leaf=-0.100444645
	2:leaf=-0.140207648
booster[21]:
0:[f17<0.5] yes=1,no=2,missing=1
	1:[f4<0.5] yes=3,no=4,missing=3
		3:[f27<0.5] yes=7,no=8,missing=7
			7:leaf=-0.0620318018
			8:leaf=0.0869614184
		4:[f13<0.5] yes=9,no=10,missing=9
			9:leaf=0.000460465933
			10:leaf=0.206553191
	2:[f26<0.5] yes=5,no=6,missing=5
		5:[f2<0.5] yes=11,no=12,missing=11
			11:leaf=-0.167755187
			12:leaf=-0.0102423728
		6:leaf=0.0491257273
booster[22]:
0:[f9<0.5] yes=1,no=2,missing=1
	1:[f34<0.5] yes=3,no=4,missing=3
		3:[f12<0.5] yes=5,no=6,missing=5
			5:leaf=0.0461952128
			6:leaf=-0.0946593508
		4:leaf=-0.0961890295
	2:leaf=-0.117262356
booster[23]:
0:[f17<0.5] yes=1,no=2,missing=1
	1:[f7<0.5] yes=3,no=4,missing=3
		3:[f4<0.5] yes=7,no=8,missing=7
			7:leaf=-0.0486573428
			8:leaf=0.114433996
		4:leaf=0.165827185
	2:[f13<0.5] yes=5,no=6,missing=5
		5:[f2<0.5] yes=9,no=10,missing=9
			9:leaf=-0.034918189
			10:leaf=-0.171938539
		6:[f27<0.5] yes=11,no=12,missing=11
			11:leaf=0.162244081
			12:leaf=-0.14515616
booster[24]:
0:[f1<0.5] yes=1,no=2,missing=1
	1:[f25<0.5] yes=3,no=4,missing=3
		3:[f4<0.5] yes=7,no=8,missing=7
			7:leaf=-0.09399537
			8:leaf=0.0273911785
		4:[f2<0.5] yes=9,no=10,missing=9
			9:leaf=-0.0550564192
			10:leaf=0.118120655
	2:[f6<0.5] yes=5,no=6,missing=5
		5:leaf=0.180419773
		6:[f26<0.5] yes=11,no=12,missing=11
			11:leaf=-0.177210018
			12:leaf=0.109948345
