booster[0]:
0:[f32<0.5] yes=1,no=2,missing=1
	1:[f35<0.5] yes=3,no=4,missing=3
		3:[f17<0.5] yes=7,no=8,missing=7
			7:leaf=0.511764705
			8:leaf=0.0857142955
		4:[f1<0.5] yes=9,no=10,missing=9
			9:leaf=0.200000018
			10:leaf=-0.150000006
	2:[f6<0.5] yes=5,no=6,missing=5
		5:leaf=-0.272727281
		6:leaf=-0
booster[1]:
0:[f29<0.5] yes=1,no=2,missing=1
	1:[f50<0.5] yes=3,no=4,missing=3
		3:leaf=0.415628552
		4:leaf=0.0466177389
	2:[f1<0.5] yes=5,no=6,missing=5
		5:[f38<0.5] yes=7,no=8,missing=7
			7:leaf=-0.0236387569
			8:leaf=0.289440572
		6:[f24<0.5] yes=9,no=10,missing=9
			9:leaf=-0.0739891604
			10:leaf=-0.270561129
booster[2]:
0:[f32<0.5] yes=1,no=2,missing=1
	1:[f26<0.5] yes=3,no=4,missing=3
		3:[f30<0.5] yes=7,no=8,missing=7
			7:leaf=0.159131885
			8:leaf=0.361215889
		4:[f51<0.5] yes=9,no=10,missing=9
			9:leaf=-0.147668347
			10:leaf=0.253580511
	2:[f45<0.5] yes=5,no=6,missing=5
		5:leaf=-0.258497268
		6:leaf=0.0196774229
booster[3]:
0:[f32<0.5] yes=1,no=2,missing=1
	1:[f58<0.5] yes=3,no=4,missing=3
		3:[f14<0.5] yes=7,no=8,missing=7
			7:leaf=0.194698289
			8:leaf=-0.0698108673
		4:[f29<0.5] yes=9,no=10,missing=9
			9:leaf=0.344850659
			10:leaf=0.108370505
	2:[f45<0.5] yes=5,no=6,missing=5
		5:leaf=-0.213549539
		6:leaf=0.0161622055
booster[4]:
0:[f30<0.5] yes=1,no=2,missing=1
	1:[f24<0.5] yes=3,no=4,missing=3
		3:[f33<0.5] yes=7,no=8,missing=7
			7:leaf=-0.0875707418
			8:leaf=0.227073371
		4:[f45<0.5] yes=9,no=10,missing=9
			9:leaf=0.0489807874
			10:leaf=-0.254051924
	2:[f26<0.5] yes=5,no=6,missing=5
		5:leaf=0.280401587
		6:leaf=-0.0022722159
booster[5]:
0:[f58<0.5] yes=1,no=2,missing=1
	1:[f51<0.5] yes=3,no=4,missing=3
		3:[f2<0.5] yes=7,no=8,missing=7
			7:leaf=-0.196962953
			8:leaf=0.0938698649
		4:[f38<0.5] yes=9,no=10,missing=9
			9:leaf=-0.0360254943
			10:leaf=0.277740657
	2:[f29<0.5] yes=5,no=6,missing=5
		5:leaf=0.305332989
		6:leaf=0.0343785696
booster[6]:
0:[f58<0.5] yes=1,no=2,missing=1
	1:[f51<0.5] yes=3,no=4,missing=3
		3:[f1<0.5] yes=7,no=8,missing=7
			7:leaf=0.0239043403
			8:leaf=-0.191889018
		4:[f38<0.5] yes=9,no=10,missing=9
			9:leaf=-0.0302404612
			10:leaf=0.248532265
	2:[f29<0.5] yes=5,no=6,missing=5
		5:leaf=0.281182021
		6:leaf=0.0277525745
booster[7]:
0:[f32<0.5] yes=1,no=2,missing=1
	1:[f40<0.5] yes=3,no=4,missing=3
		3:[f54<0.5] yes=7,no=8,missing=7
			7:leaf=0.196409345
			8:leaf=-0.00817491021
		4:leaf=-0.051797498
	2:[f6<0.5] yes=5,no=6,missing=5
		5:leaf=-0.18240492
		6:leaf=0.0267936792
booster[8]:
0:[f58<0.5] yes=1,no=2,missing=1
	1:[f36<0.5] yes=3,no=4,missing=3
		3:[f33<0.5] yes=7,no=8,missing=7
			7:leaf=-0.244828656
			8:leaf=-0.0144172972
		4:[f6<0.5] yes=9,no=10,missing=9
			9:leaf=0.196095154
			10:leaf=-0.0649229512
	2:[f29<0.5] yes=5,no=6,missing=5
		5:leaf=0.250514984
		6:leaf=0.0104251783
booster[9]:
0:[f58<0.5] yes=1,no=2,missing=1
	1:[f47<0.5] yes=3,no=4,missing=3
		3:[f27<0.5] yes=7,no=8,missing=7
			7:leaf=-0.207387909
			8:leaf=0.00214747665
		4:[f24<0.5] yes=9,no=10,missing=9
			9:leaf=0.226335719
			10:leaf=-0.0470324382
	2:[f29<0.5] yes=5,no=6,missing=5
		5:leaf=0.231848672
		6:leaf=0.00842607114
booster[10]:
0:[f40<0.5] yes=1,no=2,missing=1
	1:[f36<0.5] yes=3,no=4,missing=3
		3:[f27<0.5] yes=5,no=6,missing=5
			5:leaf=0.00108949991
			6:leaf=-0.113943689
		4:[f1<0.5] yes=7,no=8,missing=7
			7:leaf=0.215847507
			8:leaf=-0.010971345
	2:leaf=-0.106645823
booster[11]:
0:[f32<0.5] yes=1,no=2,missing=1
	1:[f46<0.5] yes=3,no=4,missing=3
		3:[f23<0.5] yes=7,no=8,missing=7
			7:leaf=0.0316600278
			8:leaf=0.199949682
		4:leaf=-0.0629712716
	2:[f6<0.5] yes=5,no=6,missing=5
		5:leaf=-0.157321841
		6:leaf=0.013282245
booster[12]:
0:[f58<0.5] yes=1,no=2,missing=1
	1:[f51<0.5] yes=3,no=4,missing=3
		3:[f45<0.5] yes=7,no=8,missing=7
			7:leaf=-0.164323449
			8:leaf=0.0530742444
		4:[f38<0.5] yes=9,no=10,missing=9
			9:leaf=-0.0597651005
			10:leaf=0.191632956
	2:[f57<0.5] yes=5,no=6,missing=5
		5:leaf=0.223438591
		6:leaf=-0.0121208541
booster[13]:
0:[f30<0.5] yes=1,no=2,missing=1
	1:[f43<0.5] yes=3,no=4,missing=3
		3:[f24<0.5] yes=7,no=8,missing=7
			7:leaf=0.0321314707
			8:leaf=-0.232830644
		4:leaf=0.178199574
	2:[f45<0.5] yes=5,no=6,missing=5
		5:leaf=-0.0421368405
		6:leaf=0.188313469
booster[14]:
0:[f58<0.5] yes=1,no=2,missing=1
	1:[f47<0.5] yes=3,no=4,missing=3
		3:[f24<0.5] yes=7,no=8,missing=7
			7:leaf=-0.173914909
			8:leaf=0.0115691992
		4:leaf=0.109802283
	2:[f29<0.5] yes=5,no=6,missing=5
		5:leaf=0.192011252
		6:leaf=-0.021198988
booster[15]:
0:[f40<0.5] yes=1,no=2,missing=1
	1:[f33<0.5] yes=3,no=4,missing=3
		3:[f24<0.5] yes=5,no=6,missing=5
			5:leaf=-0.0989406407
			6:leaf=0.0236458164
		4:[f53<0.5] yes=7,no=8,missing=7
			7:leaf=0.126919821
			8:leaf=-0.0266512856
	2:leaf=-0.0924168229
booster[16]:
0:[f58<0.5] yes=1,no=2,missing=1
	1:[f47<0.5] yes=3,no=4,missing=3
		3:[f41<0.5] yes=7,no=8,missing=7
			7:leaf=-0.129874244
			8:leaf=0.0485241041
		4:leaf=0.084940888
	2:[f57<0.5] yes=5,no=6,missing=5
		5:leaf=0.185733408
		6:leaf=-0.0222459901
booster[17]:
0:[f0<0.5] yes=1,no=2,missing=1
	1:[f30<0.5] yes=3,no=4,missing=3
		3:[f23<0.5] yes=5,no=6,missing=5
			5:leaf=-0.198549524
			6:leaf=0.0613840707
		4:[f45<0.5] yes=7,no=8,missing=7
			7:leaf=-0.0189527422
			8:leaf=0.18838498
	2:leaf=0.110148787
booster[18]:
0:[f32<0.5] yes=1,no=2,missing=1
	1:[f46<0.5] yes=3,no=4,missing=3
		3:[f23<0.5] yes=5,no=6,missing=5
			5:leaf=0.022271974
			6:leaf=0.149002254
		4:leaf=-0.0765488371
	2:leaf=-0.0719888136
booster[19]:
0:[f0<0.5] yes=1,no=2,missing=1
	1:[f29<0.5] yes=3,no=4,missing=3
		3:[f45<0.5] yes=5,no=6,missing=5
			5:leaf=-0.0467861965
			6:leaf=0.184883669
		4:[f23<0.5] yes=7,no=8,missing=7
			7:leaf=-0.18389219
			8:leaf=0.0408266522
	2:leaf=0.0982001126
booster[20]:
0:[f51<0.5] yes=1,no=2,missing=1
	1:[f26<0.5] yes=3,no=4,missing=3
		3:[f48<0.5] yes=7,no=8,missing=7
			7:leaf=0.103085749
			8:leaf=-0.0923151746
		4:leaf=-0.15058206
	2:[f38<0.5] yes=5,no=6,missing=5
		5:leaf=-0.0297594815
		6:leaf=0.126457289
booster[21]:
0:[f32<0.5] yes=1,no=2,missing=1
	1:[f46<0.5] yes=3,no=4,missing=3
		3:[f1<0.5] yes=5,no=6,missing=5
			5:leaf=0.126781851
			6:leaf=-0.01039204
		4:leaf=-0.0726023465
	2:leaf=-0.0726162493
booster[22]:
0:[f0<0.5] yes=1,no=2,missing=1
	1:[f30<0.5] yes=3,no=4,missing=3
		3:[f23<0.5] yes=5,no=6,missing=5
			5:leaf=-0.147230878
			6:leaf=0.0320573263
		4:leaf=0.0767042637
	2:leaf=0.0767614916
booster[23]:
0:[f58<0.5] yes=1,no=2,missing=1
	1:[f47<0.5] yes=3,no=4,missing=3
		3:[f41<0.5] yes=5,no=6,missing=5
			5:leaf=-0.125832617
			6:leaf=0.0369408317
		4:leaf=0.096533455
	2:leaf=0.0752005503
booster[24]:
0:[f0<0.5] yes=1,no=2,missing=1
	1:[f30<0.5] yes=3,no=4,missing=3
		3:[f23<0.5] yes=5,no=6,missing=5
			5:leaf=-0.13074106
			6:leaf=0.0268742125
		4:leaf=0.0726152435
	2:leaf=0.072946541
