booster[0]:
0:[f24<0.5] yes=1,no=2,missing=1
	1:[f16<0.5] yes=3,no=4,missing=3
		3:[f18<0.5] yes=7,no=8,missing=7
			7:leaf=0.248275876
			8:leaf=-0.0545454584
		4:[f4<0.5] yes=9,no=10,missing=9
			9:leaf=0.0400000028
			10:leaf=-0.300000012
	2:[f12<0.5] yes=5,no=6,missing=5
		5:[f6<0.5] yes=11,no=12,missing=11
			11:leaf=-0.200000018
			12:leaf=0.0857142955
		6:[f8<0.5] yes=13,no=14,missing=13
			13:leaf=-0.0315789506
			14:leaf=0.360000014
booster[1]:
0:[f12<0.5] yes=1,no=2,missing=1
	1:[f24<0.5] yes=3,no=4,missing=3
		3:[f26<0.5] yes=7,no=8,missing=7
			7:leaf=0.167992175
			8:leaf=-0.0013760716
		4:[f1<0.5] yes=9,no=10,missing=9
			9:leaf=-0.15284808
			10:leaf=0.0671343505
	2:[f19<0.5] yes=5,no=6,missing=5
		5:[f31<0.5] yes=11,no=12,missing=11
			11:leaf=-0.138644099
			12:leaf=0.326758027
		6:leaf=0.393882155
booster[2]:
0:[f4<0.5] yes=1,no=2,missing=1
	1:[f12<0.5] yes=3,no=4,missing=3
		3:[f24<0.5] yes=7,no=8,missing=7
			7:leaf=0.0991371498
			8:leaf=-0.0626543909
		4:[f10<0.5] yes=9,no=10,missing=9
			9:leaf=0.306411743
			10:leaf=-0.065637067
	2:[f20<0.5] yes=5,no=6,missing=5
		5:leaf=-0.313153535
		6:leaf=0.252993971
booster[3]:
0:[f31<0.5] yes=1,no=2,missing=1
	1:[f1<0.5] yes=3,no=4,missing=3
		3:[f18<0.5] yes=7,no=8,missing=7
			7:leaf=-0.00574952457
			8:leaf=-0.253438443
		4:[f10<0.5] yes=9,no=10,missing=9
			9:leaf=0.332390964
			10:leaf=0.0245179739
	2:[f9<0.5] yes=5,no=6,missing=5
		5:[f1<0.5] yes=11,no=12,missing=11
			11:leaf=0.259859651
			12:leaf=-0.0590708107
		6:[f2<0.5] yes=13,no=14,missing=13
			13:leaf=0.164916873
			14:leaf=-0.188752428
booster[4]:
0:[f16<0.5] yes=1,no=2,missing=1
	1:[f28<0.5] yes=3,no=4,missing=3
		3:[f12<0.5] yes=7,no=8,missing=7
			7:leaf=0.00386899221
			8:leaf=0.158344984
		4:[f3<0.5] yes=9,no=10,missing=9
			9:leaf=0.309604287
			10:leaf=0.0438845754
	2:[f21<0.5] yes=5,no=6,missing=5
		5:leaf=-0.215242863
		6:leaf=0.0422151163
booster[5]:
0:[f27<0.5] yes=1,no=2,missing=1
	1:[f7<0.5] yes=3,no=4,missing=3
		3:[f3<0.5] yes=7,no=8,missing=7
			7:leaf=0.0647582188
			8:leaf=-0.0683726892
		4:leaf=-0.25841248
	2:[f10<0.5] yes=5,no=6,missing=5
		5:[f14<0.5] yes=9,no=10,missing=9
			9:leaf=0.286744118
			10:leaf=0.0234231222
		6:leaf=-0.0519796982
booster[6]:
0:[f4<0.5] yes=1,no=2,missing=1
	1:[f10<0.5] yes=3,no=4,missing=3
		3:[f14<0.5] yes=7,no=8,missing=7
			7:leaf=0.1159508
			8:leaf=-0.0655260086
		4:[f19<0.5] yes=9,no=10,missing=9
			9:leaf=-0.133154169
			10:leaf=0.0255005378
	2:[f20<0.5] yes=5,no=6,missing=5
		5:[f9<0.5] yes=11,no=12,missing=11
			11:leaf=-0.132194862
			12:leaf=-0.344417274
		6:leaf=0.193289399
booster[7]:
0:[f27<0.5] yes=1,no=2,missing=1
	1:[f7<0.5] yes=3,no=4,missing=3
		3:[f28<0.5] yes=7,no=8,missing=7
			7:leaf=-0.0151826078
			8:leaf=0.191265419
		4:leaf=-0.2172544
	2:[f10<0.5] yes=5,no=6,missing=5
		5:[f19<0.5] yes=9,no=10,missing=9
			9:leaf=0.274252921
			10:leaf=0.0656559616
		6:leaf=-0.0292521473
booster[8]:
0:[f16<0.5] yes=1,no=2,missing=1
	1:[f24<0.5] yes=3,no=4,missing=3
		3:[f19<0.5] yes=7,no=8,missing=7
			7:leaf=0.127465799
			8:leaf=-0.0109529179
		4:[f20<0.5] yes=9,no=10,missing=9
			9:leaf=0.0111404927
			10:leaf=-0.189266622
	2:[f21<0.5] yes=5,no=6,missing=5
		5:leaf=-0.200272381
		6:leaf=0.0254304614
booster[9]:
0:[f4<0.5] yes=1,no=2,missing=1
	1:[f12<0.5] yes=3,no=4,missing=3
		3:[f33<0.5] yes=7,no=8,missing=7
			7:leaf=-0.0355016701
			8:leaf=0.169334739
		4:[f33<0.5] yes=9,no=10,missing=9
			9:leaf=0.218833089
			10:leaf=-0.105377123
	2:[f20<0.5] yes=5,no=6,missing=5
		5:[f9<0.5] yes=11,no=12,missing=11
			11:leaf=-0.11591246
			12:leaf=-0.295054764
		6:leaf=0.151640728
booster[10]:
0:[f18<0.5] yes=1,no=2,missing=1
	1:[f12<0.5] yes=3,no=4,missing=3
		3:[f28<0.5] yes=7,no=8,missing=7
			7:leaf=-0.0179665424
			8:leaf=0.159704313
		4:[f30<0.5] yes=9,no=10,missing=9
			9:leaf=0.201993451
			10:leaf=0.0669519976
	2:[f31<0.5] yes=5,no=6,missing=5
		5:[f1<0.5] yes=11,no=12,missing=11
			11:leaf=-0.233230889
			12:leaf=0.0645327941
		6:leaf=0.0576083437
booster[11]:
0:[f16<0.5] yes=1,no=2,missing=1
	1:[f3<0.5] yes=3,no=4,missing=3
		3:[f15<0.5] yes=7,no=8,missing=7
			7:leaf=0.0718042403
			8:leaf=-0.0839514583
		4:[f31<0.5] yes=9,no=10,missing=9
			9:leaf=-0.120162778
			10:leaf=0.139089808
	2:[f21<0.5] yes=5,no=6,missing=5
		5:leaf=-0.166402757
		6:leaf=0.0262745824
booster[12]:
0:[f4<0.5] yes=1,no=2,missing=1
	1:[f10<0.5] yes=3,no=4,missing=3
		3:[f27<0.5] yes=7,no=8,missing=7
			7:leaf=0.0223043114
			8:leaf=0.193899512
		4:[f26<0.5] yes=9,no=10,missing=9
			9:leaf=-0.108001791
			10:leaf=0.0495414659
	2:[f20<0.5] yes=5,no=6,missing=5
		5:[f9<0.5] yes=11,no=12,missing=11
			11:leaf=-0.094650276
			12:leaf=-0.261424541
		6:leaf=0.128375351
booster[13]:
0:[f23<0.5] yes=1,no=2,missing=1
	1:[f4<0.5] yes=3,no=4,missing=3
		3:[f12<0.5] yes=5,no=6,missing=5
			5:leaf=-0.0132942433
			6:leaf=0.110460714
		4:[f20<0.5] yes=7,no=8,missing=7
			7:leaf=-0.229066953
			8:leaf=0.110339619
	2:leaf=0.183167681
booster[14]:
0:[f18<0.5] yes=1,no=2,missing=1
	1:[f28<0.5] yes=3,no=4,missing=3
		3:[f27<0.5] yes=7,no=8,missing=7
			7:leaf=-0.0205748938
			8:leaf=0.119052008
		4:[f19<0.5] yes=9,no=10,missing=9
			9:leaf=0.229376897
			10:leaf=-0.0187893976
	2:[f6<0.5] yes=5,no=6,missing=5
		5:[f12<0.5] yes=11,no=12,missing=11
			11:leaf=-0.196914658
			12:leaf=-0.0266116858
		6:leaf=0.0519111753
booster[15]:
0:[f21<0.5] yes=1,no=2,missing=1
	1:[f14<0.5] yes=3,no=4,missing=3
		3:[f16<0.5] yes=7,no=8,missing=7
			7:leaf=0.0286108591
			8:leaf=-0.138334438
		4:[f19<0.5] yes=9,no=10,missing=9
			9:leaf=0.0821160227
			10:leaf=-0.226607963
	2:[f3<0.5] yes=5,no=6,missing=5
		5:leaf=0.184468091
		6:leaf=-0.0251139328
booster[16]:
0:[f23<0.5] yes=1,no=2,missing=1
	1:[f4<0.5] yes=3,no=4,missing=3
		3:[f35<0.5] yes=5,no=6,missing=5
			5:leaf=0.0179973375
			6:leaf=-0.191981375
		4:[f20<0.5] yes=7,no=8,missing=7
			7:leaf=-0.192190394
			8:leaf=0.0931312442
	2:leaf=0.146225348
booster[17]:
0:[f18<0.5] yes=1,no=2,missing=1
	1:[f28<0.5] yes=3,no=4,missing=3
		3:[f15<0.5] yes=7,no=8,missing=7
			7:leaf=0.0192279853
			8:leaf=-0.117586665
		4:[f19<0.5] yes=9,no=10,missing=9
			9:leaf=0.203355417
			10:leaf=-0.00384789449
	2:[f2<0.5] yes=5,no=6,missing=5
		5:[f1<0.5] yes=11,no=12,missing=11
			11:leaf=-0.150269106
			12:leaf=-0.0270923357
		6:leaf=0.0312600434
booster[18]:
0:[f21<0.5] yes=1,no=2,missing=1
	1:[f35<0.5] yes=3,no=4,missing=3
		3:[f27<0.5] yes=7,no=8,missing=7
			7:leaf=-0.021246925
			8:leaf=0.125147223
		4:leaf=-0.18436636
	2:[f29<0.5] yes=5,no=6,missing=5
		5:leaf=0.190291524
		6:leaf=-0.016982479
booster[19]:
0:[f8<0.5] yes=1,no=2,missing=1
	1:[f13<0.5] yes=3,no=4,missing=3
		3:[f27<0.5] yes=7,no=8,missing=7
			7:leaf=-0.0818083435
			8:leaf=0.0995262116
		4:[f33<0.5] yes=9,no=10,missing=9
			9:leaf=-0.00547043234
			10:leaf=0.236272976
	2:[f13<0.5] yes=5,no=6,missing=5
		5:[f33<0.5] yes=11,no=12,missing=11
			11:leaf=0.179631352
			12:leaf=-0.124312468
		6:leaf=-0.0496543422
booster[20]:
0:[f3<0.5] yes=1,no=2,missing=1
	1:[f21<0.5] yes=3,no=4,missing=3
		3:[f16<0.5] yes=7,no=8,missing=7
			7:leaf=0.0279674865
			8:leaf=-0.158335596
		4:leaf=0.158380657
	2:[f31<0.5] yes=5,no=6,missing=5
		5:[f27<0.5] yes=9,no=10,missing=9
			9:leaf=-0.129038766
			10:leaf=0.0657152832
		6:[f19<0.5] yes=11,no=12,missing=11
			11:leaf=0.205851793
			12:leaf=-0.0669564307
booster[21]:
0:[f28<0.5] yes=1,no=2,missing=1
	1:[f12<0.5] yes=3,no=4,missing=3
		3:[f13<0.5] yes=7,no=8,missing=7
			7:leaf=-0.0714443699
			8:leaf=0.0152794896
		4:[f19<0.5] yes=9,no=10,missing=9
			9:leaf=-0.00791492406
			10:leaf=0.196048215
	2:[f19<0.5] yes=5,no=6,missing=5
		5:leaf=0.136743516
		6:leaf=0.0119190123
booster[22]:
0:[f23<0.5] yes=1,no=2,missing=1
	1:[f21<0.5] yes=3,no=4,missing=3
		3:[f14<0.5] yes=5,no=6,missing=5
			5:leaf=0.00524796825
			6:leaf=-0.0926418826
		4:[f29<0.5] yes=7,no=8,missing=7
			7:leaf=0.166702509
			8:leaf=-0.00687196385
	2:leaf=0.140062973
booster[23]:
0:[f24<0.5] yes=1,no=2,missing=1
	1:[f18<0.5] yes=3,no=4,missing=3
		3:[f34<0.5] yes=7,no=8,missing=7
			7:leaf=0.0642078221
			8:leaf=-0.0755869895
		4:leaf=-0.129419968
	2:[f20<0.5] yes=5,no=6,missing=5
		5:[f6<0.5] yes=9,no=10,missing=9
			9:leaf=-0.0233346671
			10:leaf=0.134288371
		6:[f9<0.5] yes=11,no=12,missing=11
			11:leaf=-0.290783465
			12:leaf=-0.00463690562
booster[24]:
0:[f4<0.5] yes=1,no=2,missing=1
	1:[f35<0.5] yes=3,no=4,missing=3
		3:[f22<0.5] yes=7,no=8,missing=7
			7:leaf=0.00962113682
			8:leaf=0.1835123
		4:leaf=-0.169470355
	2:[f20<0.5] yes=5,no=6,missing=5
		5:leaf=-0.131719604
		6:leaf=0.0795829892
