booster[0]:
0:[f18<0.5] yes=1,no=2,missing=1
	1:[f12<0.5] yes=3,no=4,missing=3
		3:[f4<0.5] yes=5,no=6,missing=5
			5:leaf=0.350128531
			6:leaf=-0.183050841
		4:leaf=-0.589958191
	2:leaf=-0.593600035
booster[1]:
0:[f18<0.5] yes=1,no=2,missing=1
	1:[f12<0.5] yes=3,no=4,missing=3
		3:[f0<0.5] yes=5,no=6,missing=5
			5:leaf=0.282244921
			6:leaf=-0.191505283
		4:leaf=-0.457814574
	2:leaf=-0.46028778
booster[2]:
0:[f18<0.5] yes=1,no=2,missing=1
	1:[f12<0.5] yes=3,no=4,missing=3
		3:[f4<0.5] yes=5,no=6,missing=5
			5:leaf=0.21550335
			6:leaf=-0.17436403
		4:leaf=-0.396439731
	2:leaf=-0.398963362
booster[3]:
0:[f20<0.5] yes=1,no=2,missing=1
	1:[f18<0.5] yes=3,no=4,missing=3
		3:[f15<0.5] yes=7,no=8,missing=7
			7:leaf=-0.00436546421
			8:leaf=-0.394529074
		4:leaf=-0.363788098
	2:[f12<0.5] yes=5,no=6,missing=5
		5:[f0<0.5] yes=9,no=10,missing=9
			9:leaf=0.307541281
			10:leaf=-0.0161052849
		6:leaf=-0.351493746
booster[4]:
0:[f12<0.5] yes=1,no=2,missing=1
	1:[f18<0.5] yes=3,no=4,missing=3
		3:[f3<0.5] yes=5,no=6,missing=5
			5:leaf=-0.00742103579
			6:leaf=0.332156986
		4:leaf=-0.337675184
	2:leaf=-0.346852452
booster[5]:
0:[f12<0.5] yes=1,no=2,missing=1
	1:[f18<0.5] yes=3,no=4,missing=3
		3:[f4<0.5] yes=5,no=6,missing=5
			5:leaf=0.137607083
			6:leaf=-0.161394313
		4:leaf=-0.321163833
	2:leaf=-0.329230219
booster[6]:
0:[f20<0.5] yes=1,no=2,missing=1
	1:[f15<0.5] yes=3,no=4,missing=3
		3:[f18<0.5] yes=7,no=8,missing=7
			7:leaf=0.00979966111
			8:leaf=-0.307766318
		4:[f3<0.5] yes=9,no=10,missing=9
			9:leaf=-0.399198025
			10:leaf=-0.0804586634
	2:[f12<0.5] yes=5,no=6,missing=5
		5:[f2<0.5] yes=11,no=12,missing=11
			11:leaf=0.078837961
			12:leaf=0.364156455
		6:leaf=-0.290984035
booster[7]:
0:[f12<0.5] yes=1,no=2,missing=1
	1:[f0<0.5] yes=3,no=4,missing=3
		3:[f1<0.5] yes=5,no=6,missing=5
			5:leaf=0.189218566
			6:leaf=-0.144771144
		4:[f5<0.5] yes=7,no=8,missing=7
			7:leaf=-0.0186322369
			8:leaf=-0.647558808
	2:leaf=-0.310301781
booster[8]:
0:[f18<0.5] yes=1,no=2,missing=1
	1:[f12<0.5] yes=3,no=4,missing=3
		3:[f15<0.5] yes=5,no=6,missing=5
			5:leaf=0.125188977
			6:leaf=-0.121092893
		4:leaf=-0.295475036
	2:leaf=-0.302644104
booster[9]:
0:[f20<0.5] yes=1,no=2,missing=1
	1:[f17<0.5] yes=3,no=4,missing=3
		3:[f8<0.5] yes=7,no=8,missing=7
			7:leaf=-0.125239596
			8:leaf=-0.407396823
		4:[f18<0.5] yes=9,no=10,missing=9
			9:leaf=0.117319524
			10:leaf=-0.262854338
	2:[f4<0.5] yes=5,no=6,missing=5
		5:[f5<0.5] yes=11,no=12,missing=11
			11:leaf=0.267421097
			12:leaf=-0.0366128013
		6:[f1<0.5] yes=13,no=14,missing=13
			13:leaf=0.0562412478
			14:leaf=-0.491680294
booster[10]:
0:[f12<0.5] yes=1,no=2,missing=1
	1:[f0<0.5] yes=3,no=4,missing=3
		3:[f1<0.5] yes=5,no=6,missing=5
			5:leaf=0.173148692
			6:leaf=-0.0928853378
		4:[f5<0.5] yes=7,no=8,missing=7
			7:leaf=-0.0321804285
			8:leaf=-0.491136193
	2:leaf=-0.290321678
booster[11]:
0:[f18<0.5] yes=1,no=2,missing=1
	1:[f4<0.5] yes=3,no=4,missing=3
		3:[f8<0.5] yes=5,no=6,missing=5
			5:leaf=0.148448795
			6:leaf=-0.136440188
		4:[f2<0.5] yes=7,no=8,missing=7
			7:leaf=-0.267128915
			8:leaf=0.170958519
	2:leaf=-0.288017035
booster[12]:
0:[f12<0.5] yes=1,no=2,missing=1
	1:[f18<0.5] yes=3,no=4,missing=3
		3:[f3<0.5] yes=5,no=6,missing=5
			5:leaf=-0.01666913
			6:leaf=0.227485493
		4:leaf=-0.273178279
	2:leaf=-0.280565679
booster[13]:
0:[f20<0.5] yes=1,no=2,missing=1
	1:[f15<0.5] yes=3,no=4,missing=3
		3:[f18<0.5] yes=7,no=8,missing=7
			7:leaf=0.0352015831
			8:leaf=-0.252807468
		4:[f6<0.5] yes=9,no=10,missing=9
			9:leaf=-0.291301906
			10:leaf=-0.0268346332
	2:[f13<0.5] yes=5,no=6,missing=5
		5:[f8<0.5] yes=11,no=12,missing=11
			11:leaf=0.0676140636
			12:leaf=-0.255723983
		6:[f4<0.5] yes=13,no=14,missing=13
			13:leaf=0.261327058
			14:leaf=0.00680995081
booster[14]:
0:[f0<0.5] yes=1,no=2,missing=1
	1:[f12<0.5] yes=3,no=4,missing=3
		3:[f15<0.5] yes=7,no=8,missing=7
			7:leaf=0.150723234
			8:leaf=-0.0699067116
		4:leaf=-0.258428246
	2:[f7<0.5] yes=5,no=6,missing=5
		5:[f6<0.5] yes=9,no=10,missing=9
			9:leaf=-0.416846842
			10:leaf=0.10549885
		6:[f20<0.5] yes=11,no=12,missing=11
			11:leaf=-0.0340593569
			12:leaf=0.303715616
booster[15]:
0:[f4<0.5] yes=1,no=2,missing=1
	1:[f5<0.5] yes=3,no=4,missing=3
		3:[f12<0.5] yes=7,no=8,missing=7
			7:leaf=0.138335362
			8:leaf=-0.2358374
		4:[f0<0.5] yes=9,no=10,missing=9
			9:leaf=0.0164382514
			10:leaf=-0.36447224
	2:[f1<0.5] yes=5,no=6,missing=5
		5:[f0<0.5] yes=11,no=12,missing=11
			11:leaf=0.123133883
			12:leaf=-0.312254131
		6:leaf=-0.386640698
booster[16]:
0:[f17<0.5] yes=1,no=2,missing=1
	1:[f8<0.5] yes=3,no=4,missing=3
		3:[f20<0.5] yes=7,no=8,missing=7
			7:leaf=-0.0849847198
			8:leaf=0.129811108
		4:[f13<0.5] yes=9,no=10,missing=9
			9:leaf=-0.432117313
			10:leaf=-0.0834927782
	2:[f18<0.5] yes=5,no=6,missing=5
		5:[f4<0.5] yes=11,no=12,missing=11
			11:leaf=0.211727336
			12:leaf=-0.0359576643
		6:leaf=-0.208044887
booster[17]:
0:[f18<0.5] yes=1,no=2,missing=1
	1:[f3<0.5] yes=3,no=4,missing=3
		3:[f2<0.5] yes=5,no=6,missing=5
			5:leaf=-0.0931782871
			6:leaf=0.128248528
		4:[f8<0.5] yes=7,no=8,missing=7
			7:leaf=0.212179497
			8:leaf=-0.047148969
	2:leaf=-0.255120784
booster[18]:
0:[f12<0.5] yes=1,no=2,missing=1
	1:[f17<0.5] yes=3,no=4,missing=3
		3:[f8<0.5] yes=5,no=6,missing=5
			5:leaf=0.0216509439
			6:leaf=-0.207625493
		4:[f4<0.5] yes=7,no=8,missing=7
			7:leaf=0.200793222
			8:leaf=-0.0314784832
	2:leaf=-0.255899072
booster[19]:
0:[f6<0.5] yes=1,no=2,missing=1
	1:[f7<0.5] yes=3,no=4,missing=3
		3:[f0<0.5] yes=7,no=8,missing=7
			7:leaf=-0.0231581703
			8:leaf=-0.342729867
		4:[f1<0.5] yes=9,no=10,missing=9
			9:leaf=0.133231819
			10:leaf=-0.0627706647
	2:[f18<0.5] yes=5,no=6,missing=5
		5:[f12<0.5] yes=11,no=12,missing=11
			11:leaf=0.174765185
			12:leaf=-0.156335294
		6:leaf=-0.172393784
booster[20]:
0:[f20<0.5] yes=1,no=2,missing=1
	1:[f15<0.5] yes=3,no=4,missing=3
		3:[f18<0.5] yes=7,no=8,missing=7
			7:leaf=0.030251313
			8:leaf=-0.223013446
		4:[f3<0.5] yes=9,no=10,missing=9
			9:leaf=-0.248858377
			10:leaf=0.00880093686
	2:[f13<0.5] yes=5,no=6,missing=5
		5:[f15<0.5] yes=11,no=12,missing=11
			11:leaf=0.0924205855
			12:leaf=-0.167229459
		6:[f0<0.5] yes=13,no=14,missing=13
			13:leaf=0.221569657
			14:leaf=0.0245104097
booster[21]:
0:[f12<0.5] yes=1,no=2,missing=1
	1:[f4<0.5] yes=3,no=4,missing=3
		3:[f5<0.5] yes=5,no=6,missing=5
			5:leaf=0.110214457
			6:leaf=-0.0498965494
		4:[f1<0.5] yes=7,no=8,missing=7
			7:leaf=0.0123639172
			8:leaf=-0.338426828
	2:leaf=-0.240314454
booster[22]:
0:[f20<0.5] yes=1,no=2,missing=1
	1:[f17<0.5] yes=3,no=4,missing=3
		3:[f11<0.5] yes=7,no=8,missing=7
			7:leaf=-0.163837865
			8:leaf=0.0455717817
		4:[f18<0.5] yes=9,no=10,missing=9
			9:leaf=0.107888155
			10:leaf=-0.167669564
	2:[f13<0.5] yes=5,no=6,missing=5
		5:[f8<0.5] yes=11,no=12,missing=11
			11:leaf=0.0756009594
			12:leaf=-0.142905116
		6:[f0<0.5] yes=13,no=14,missing=13
			13:leaf=0.201441273
			14:leaf=0.00790710654
booster[23]:
0:[f4<0.5] yes=1,no=2,missing=1
	1:[f12<0.5] yes=3,no=4,missing=3
		3:[f8<0.5] yes=7,no=8,missing=7
			7:leaf=0.0942439511
			8:leaf=-0.0595165454
		4:leaf=-0.216123685
	2:[f1<0.5] yes=5,no=6,missing=5
		5:[f0<0.5] yes=9,no=10,missing=9
			9:leaf=0.0844003111
			10:leaf=-0.255565971
		6:leaf=-0.313056618
booster[24]:
0:[f15<0.5] yes=1,no=2,missing=1
	1:[f0<0.5] yes=3,no=4,missing=3
		3:[f18<0.5] yes=7,no=8,missing=7
			7:leaf=0.117952667
			8:leaf=-0.195577607
		4:[f5<0.5] yes=9,no=10,missing=9
			9:leaf=0.0425687656
			10:leaf=-0.305389345
	2:[f8<0.5] yes=5,no=6,missing=5
		5:[f20<0.5] yes=11,no=12,missing=11
			11:leaf=-0.123281278
			12:leaf=0.159598634
		6:[f13<0.5] yes=13,no=14,missing=13
			13:leaf=-0.484253734
			14:leaf=0.110927306
