booster[0]:
0:[f6<0.5] yes=1,no=2,missing=1
	1:[f5<0.5] yes=3,no=4,missing=3
		3:[f24<0.5] yes=7,no=8,missing=7
			7:leaf=0.076363638
			8:leaf=0.2057143
		4:[f10<0.5] yes=9,no=10,missing=9
			9:leaf=0.105882362
			10:leaf=-0.0400000028
	2:[f0<0.5] yes=5,no=6,missing=5
		5:[f1<0.5] yes=11,no=12,missing=11
			11:leaf=0.157894745
			12:leaf=-0
		6:[f10<0.5] yes=13,no=14,missing=13
			13:leaf=-0.214285731
			14:leaf=-0.0685714334
booster[1]:
0:[f0<0.5] yes=1,no=2,missing=1
	1:[f22<0.5] yes=3,no=4,missing=3
		3:[f5<0.5] yes=7,no=8,missing=7
			7:leaf=0.312707007
			8:leaf=0.068773374
		4:[f12<0.5] yes=9,no=10,missing=9
			9:leaf=0.0051734522
			10:leaf=0.108555585
	2:[f6<0.5] yes=5,no=6,missing=5
		5:[f12<0.5] yes=11,no=12,missing=11
			11:leaf=-0.0369713306
			12:leaf=0.118641235
		6:[f10<0.5] yes=13,no=14,missing=13
			13:leaf=-0.160965383
			14:leaf=-0.0492376201
booster[2]:
0:[f4<0.5] yes=1,no=2,missing=1
	1:[f2<0.5] yes=3,no=4,missing=3
		3:[f6<0.5] yes=5,no=6,missing=5
			5:leaf=0.0414432511
			6:leaf=-0.0333745815
		4:[f22<0.5] yes=7,no=8,missing=7
			7:leaf=0.288538605
			8:leaf=0.0463520996
	2:leaf=0.293223828
booster[3]:
0:[f4<0.5] yes=1,no=2,missing=1
	1:[f2<0.5] yes=3,no=4,missing=3
		3:[f3<0.5] yes=5,no=6,missing=5
			5:leaf=-0.00447761361
			6:leaf=0.145304888
		4:[f12<0.5] yes=7,no=8,missing=7
			7:leaf=0.00293130334
			8:leaf=0.236823067
	2:leaf=0.253965735
booster[4]:
0:[f4<0.5] yes=1,no=2,missing=1
	1:[f24<0.5] yes=3,no=4,missing=3
		3:[f16<0.5] yes=5,no=6,missing=5
			5:leaf=0.0807912573
			6:leaf=-0.0406249613
		4:[f10<0.5] yes=7,no=8,missing=7
			7:leaf=-0.0439447761
			8:leaf=0.0578515492
	2:leaf=0.22420986
booster[5]:
0:[f0<0.5] yes=1,no=2,missing=1
	1:[f22<0.5] yes=3,no=4,missing=3
		3:[f5<0.5] yes=7,no=8,missing=7
			7:leaf=0.20427683
			8:leaf=0.0486439466
		4:[f10<0.5] yes=9,no=10,missing=9
			9:leaf=0.114286982
			10:leaf=-0.00186504098
	2:[f6<0.5] yes=5,no=6,missing=5
		5:[f12<0.5] yes=11,no=12,missing=11
			11:leaf=-0.0365200825
			12:leaf=0.0773763955
		6:[f14<0.5] yes=13,no=14,missing=13
			13:leaf=-0.167979583
			14:leaf=-0.037245445
booster[6]:
0:[f0<0.5] yes=1,no=2,missing=1
	1:[f12<0.5] yes=3,no=4,missing=3
		3:[f8<0.5] yes=7,no=8,missing=7
			7:leaf=-0.0888765603
			8:leaf=0.060278818
		4:[f1<0.5] yes=9,no=10,missing=9
			9:leaf=0.120725676
			10:leaf=-0.0873850733
	2:[f8<0.5] yes=5,no=6,missing=5
		5:[f12<0.5] yes=11,no=12,missing=11
			11:leaf=-0.0614598282
			12:leaf=0.0856810883
		6:[f6<0.5] yes=13,no=14,missing=13
			13:leaf=-0.00738837523
			14:leaf=-0.0641236454
booster[7]:
0:[f3<0.5] yes=1,no=2,missing=1
	1:[f8<0.5] yes=3,no=4,missing=3
		3:[f12<0.5] yes=5,no=6,missing=5
			5:leaf=-0.0728465989
			6:leaf=0.099559091
		4:[f2<0.5] yes=7,no=8,missing=7
			7:leaf=-0.0236548968
			8:leaf=0.0798028111
	2:leaf=0.107785337
booster[8]:
0:[f24<0.5] yes=1,no=2,missing=1
	1:[f20<0.5] yes=3,no=4,missing=3
		3:[f22<0.5] yes=7,no=8,missing=7
			7:leaf=-0.168982059
			8:leaf=-0.0526422933
		4:[f2<0.5] yes=9,no=10,missing=9
			9:leaf=-0.00815311819
			10:leaf=0.112746827
	2:[f3<0.5] yes=5,no=6,missing=5
		5:[f14<0.5] yes=11,no=12,missing=11
			11:leaf=0.124107584
			12:leaf=0.00257309945
		6:leaf=0.156691432
booster[9]:
0:[f2<0.5] yes=1,no=2,missing=1
	1:[f6<0.5] yes=3,no=4,missing=3
		3:[f8<0.5] yes=7,no=8,missing=7
			7:leaf=0.0835315362
			8:leaf=-0.011391174
		4:[f14<0.5] yes=9,no=10,missing=9
			9:leaf=-0.110987335
			10:leaf=-0.00932873972
	2:[f22<0.5] yes=5,no=6,missing=5
		5:leaf=0.199295968
		6:[f6<0.5] yes=11,no=12,missing=11
			11:leaf=-0.151070654
			12:leaf=0.158189535
booster[10]:
0:[f12<0.5] yes=1,no=2,missing=1
	1:[f8<0.5] yes=3,no=4,missing=3
		3:[f1<0.5] yes=7,no=8,missing=7
			7:leaf=-0.0933734402
			8:leaf=0.0405194014
		4:[f0<0.5] yes=9,no=10,missing=9
			9:leaf=0.0452540815
			10:leaf=-0.0199721344
	2:[f8<0.5] yes=5,no=6,missing=5
		5:[f6<0.5] yes=11,no=12,missing=11
			11:leaf=0.21381028
			12:leaf=-0.00685444474
		6:[f1<0.5] yes=13,no=14,missing=13
			13:leaf=-0.00393243786
			14:leaf=-0.118033051
booster[11]:
0:[f24<0.5] yes=1,no=2,missing=1
	1:[f20<0.5] yes=3,no=4,missing=3
		3:[f22<0.5] yes=7,no=8,missing=7
			7:leaf=-0.141142353
			8:leaf=-0.0387082249
		4:[f2<0.5] yes=9,no=10,missing=9
			9:leaf=-0.0080267638
			10:leaf=0.0916976929
	2:[f3<0.5] yes=5,no=6,missing=5
		5:[f14<0.5] yes=11,no=12,missing=11
			11:leaf=0.111582115
			12:leaf=-0.000468170212
		6:leaf=0.128567725
booster[12]:
0:[f2<0.5] yes=1,no=2,missing=1
	1:[f24<0.5] yes=3,no=4,missing=3
		3:[f16<0.5] yes=7,no=8,missing=7
			7:leaf=0.0503496714
			8:leaf=-0.0319548286
		4:[f3<0.5] yes=9,no=10,missing=9
			9:leaf=0.00663546799
			10:leaf=0.109977104
	2:[f12<0.5] yes=5,no=6,missing=5
		5:[f8<0.5] yes=11,no=12,missing=11
			11:leaf=-0.108463638
			12:leaf=0.0473509878
		6:leaf=0.138148829
booster[13]:
0:[f2<0.5] yes=1,no=2,missing=1
	1:[f24<0.5] yes=3,no=4,missing=3
		3:[f20<0.5] yes=7,no=8,missing=7
			7:leaf=-0.0749494657
			8:leaf=-0.00103651488
		4:[f10<0.5] yes=9,no=10,missing=9
			9:leaf=-0.0352246016
			10:leaf=0.0237836968
	2:[f6<0.5] yes=5,no=6,missing=5
		5:[f24<0.5] yes=11,no=12,missing=11
			11:leaf=-0.00167792698
			12:leaf=-0.0369761512
		6:leaf=0.132526979
booster[14]:
0:[f12<0.5] yes=1,no=2,missing=1
	1:[f8<0.5] yes=3,no=4,missing=3
		3:[f1<0.5] yes=7,no=8,missing=7
			7:leaf=-0.0726218298
			8:leaf=0.0348689929
		4:[f0<0.5] yes=9,no=10,missing=9
			9:leaf=0.032102026
			10:leaf=-0.0108749578
	2:[f1<0.5] yes=5,no=6,missing=5
		5:[f8<0.5] yes=11,no=12,missing=11
			11:leaf=0.0617161877
			12:leaf=-0.000558039115
		6:[f8<0.5] yes=13,no=14,missing=13
			13:leaf=-0.0344257504
			14:leaf=-0.100635491
booster[15]:
0:[f5<0.5] yes=1,no=2,missing=1
	1:[f6<0.5] yes=3,no=4,missing=3
		3:[f18<0.5] yes=7,no=8,missing=7
			7:leaf=0.25050354
			8:leaf=0.00985930581
		4:[f14<0.5] yes=9,no=10,missing=9
			9:leaf=-0.152767763
			10:leaf=0.00215161499
	2:[f6<0.5] yes=5,no=6,missing=5
		5:[f10<0.5] yes=11,no=12,missing=11
			11:leaf=0.0322719105
			12:leaf=-0.0904604718
		6:[f22<0.5] yes=13,no=14,missing=13
			13:leaf=0.0931926146
			14:leaf=-0.0179436635
booster[16]:
0:[f3<0.5] yes=1,no=2,missing=1
	1:[f2<0.5] yes=3,no=4,missing=3
		3:[f6<0.5] yes=7,no=8,missing=7
			7:leaf=0.00700586708
			8:leaf=-0.0127147203
		4:[f6<0.5] yes=9,no=10,missing=9
			9:leaf=-0.0271758195
			10:leaf=0.113753125
	2:[f8<0.5] yes=5,no=6,missing=5
		5:leaf=-0.00927638914
		6:leaf=0.0746759921
booster[17]:
0:[f5<0.5] yes=1,no=2,missing=1
	1:[f16<0.5] yes=3,no=4,missing=3
		3:[f0<0.5] yes=7,no=8,missing=7
			7:leaf=-0.110238537
			8:leaf=-0.00262871524
		4:[f0<0.5] yes=9,no=10,missing=9
			9:leaf=0.0490970239
			10:leaf=-0.00341405929
	2:[f16<0.5] yes=5,no=6,missing=5
		5:[f24<0.5] yes=11,no=12,missing=11
			11:leaf=0.123507865
			12:leaf=-0.0126587553
		6:[f6<0.5] yes=13,no=14,missing=13
			13:leaf=-0.0528426133
			14:leaf=0.00545011275
booster[18]:
0:[f1<0.5] yes=1,no=2,missing=1
	1:[f12<0.5] yes=3,no=4,missing=3
		3:[f8<0.5] yes=7,no=8,missing=7
			7:leaf=-0.0529480241
			8:leaf=0.0062201838
		4:[f0<0.5] yes=9,no=10,missing=9
			9:leaf=0.058076445
			10:leaf=-0.00102216331
	2:[f12<0.5] yes=5,no=6,missing=5
		5:[f24<0.5] yes=11,no=12,missing=11
			11:leaf=0.0373454206
			12:leaf=-0.00281437184
		6:leaf=-0.0786926448
booster[19]:
0:[f5<0.5] yes=1,no=2,missing=1
	1:[f18<0.5] yes=3,no=4,missing=3
		3:leaf=0.0758432373
		4:[f10<0.5] yes=7,no=8,missing=7
			7:leaf=-0.0376042686
			8:leaf=0.0154144783
	2:[f16<0.5] yes=5,no=6,missing=5
		5:[f24<0.5] yes=9,no=10,missing=9
			9:leaf=0.0974772349
			10:leaf=-0.0200835392
		6:[f22<0.5] yes=11,no=12,missing=11
			11:leaf=0.00296031567
			12:leaf=-0.0470197424
booster[20]:
0:[f1<0.5] yes=1,no=2,missing=1
	1:[f24<0.5] yes=3,no=4,missing=3
		3:[f2<0.5] yes=7,no=8,missing=7
			7:leaf=-0.0156471208
			8:leaf=0.0622583032
		4:[f10<0.5] yes=9,no=10,missing=9
			9:leaf=-0.0377295688
			10:leaf=0.0320873521
	2:[f12<0.5] yes=5,no=6,missing=5
		5:[f24<0.5] yes=11,no=12,missing=11
			11:leaf=0.0285156555
			12:leaf=-0.00391888805
		6:leaf=-0.0644482449
booster[21]:
0:[f22<0.5] yes=1,no=2,missing=1
	1:[f0<0.5] yes=3,no=4,missing=3
		3:[f5<0.5] yes=7,no=8,missing=7
			7:leaf=0.126499414
			8:leaf=0.0176145043
		4:[f12<0.5] yes=9,no=10,missing=9
			9:leaf=-0.0906828195
			10:leaf=0.0140002659
	2:[f10<0.5] yes=5,no=6,missing=5
		5:[f20<0.5] yes=11,no=12,missing=11
			11:leaf=-0.0371172987
			12:leaf=0.0581443049
		6:[f20<0.5] yes=13,no=14,missing=13
			13:leaf=0.0528784469
			14:leaf=-0.0311516859
booster[22]:
0:[f1<0.5] yes=1,no=2,missing=1
	1:[f5<0.5] yes=3,no=4,missing=3
		3:[f6<0.5] yes=7,no=8,missing=7
			7:leaf=0.0341548659
			8:leaf=-0.0128488746
		4:[f16<0.5] yes=9,no=10,missing=9
			9:leaf=0.0441852659
			10:leaf=-0.0229610261
	2:[f12<0.5] yes=5,no=6,missing=5
		5:[f24<0.5] yes=11,no=12,missing=11
			11:leaf=0.0195121318
			12:leaf=-0.00575016113
		6:[f8<0.5] yes=13,no=14,missing=13
			13:leaf=-0.0150062377
			14:leaf=-0.0661262125
booster[23]:
0:[f22<0.5] yes=1,no=2,missing=1
	1:[f10<0.5] yes=3,no=4,missing=3
		3:[f12<0.5] yes=7,no=8,missing=7
			7:leaf=-0.0113833677
			8:leaf=-0.0631846115
		4:[f12<0.5] yes=9,no=10,missing=9
			9:leaf=-0.0230895039
			10:leaf=0.0622137897
	2:[f2<0.5] yes=5,no=6,missing=5
		5:[f18<0.5] yes=11,no=12,missing=11
			11:leaf=-0.0970520973
			12:leaf=0.00759593723
		6:[f6<0.5] yes=13,no=14,missing=13
			13:leaf=-0.155842692
			14:leaf=0.0908219442
booster[24]:
0:[f1<0.5] yes=1,no=2,missing=1
	1:[f20<0.5] yes=3,no=4,missing=3
		3:[f24<0.5] yes=7,no=8,missing=7
			7:leaf=-0.0665687099
			8:leaf=0.0141669912
		4:[f12<0.5] yes=9,no=10,missing=9
			9:leaf=-0.00565102883
			10:leaf=0.015172489
	2:[f6<0.5] yes=5,no=6,missing=5
		5:[f8<0.5] yes=11,no=12,missing=11
			11:leaf=0.0318649635
			12:leaf=-0.0753944293
		6:leaf=0.0276773386
